{"learner":{"attributes":{"best_iteration":"798","best_score":"0.18149031840307453","scikit_learn":"{\"_estimator_type\": \"regressor\"}"},"feature_names":["brand","model","vehicle_age","fuel_type","transmission","odometer_reading","fuel_efficiency","owner_count","engine_cc","city","km_per_year","ownership_trust_score","vehicle_health_score"],"feature_types":["int","int","int","int","int","float","float","int","float","int","float","int","float"],"gradient_booster":{"model":{"cats":{"enc":[],"feature_segments":[],"sorted_idx":[]},"gbtree_model_param":{"num_parallel_tree":"1","num_trees":"800"},"iteration_indptr":[0,1,2,3,4,5,6,7,8,9,10,11,12,13,14,15,16,17,18,19,20,21,22,23,24,25,26,27,28,29,30,31,32,33,34,35,36,37,38,39,40,41,42,43,44,45,46,47,48,49,50,51,52,53,54,55,56,57,58,59,60,61,62,63,64,65,66,67,68,69,70,71,72,73,74,75,76,77,78,79,80,81,82,83,84,85,86,87,88,89,90,91,92,93,94,95,96,97,98,99,100,101,102,103,104,105,106,107,108,109,110,111,112,113,114,115,116,117,118,119,120,121,122,123,124,125,126,127,128,129,130,131,132,133,134,135,136,137,138,139,140,141,142,143,144,145,146,147,148,149,150,151,152,153,154,155,156,157,158,159,160,161,162,163,164,165,166,167,168,169,170,171,172,173,174,175,176,177,178,179,180,181,182,183,184,185,186,187,188,189,190,191,192,193,194,195,196,197,198,199,200,201,202,203,204,205,206,207,208,209,210,211,212,213,214,215,216,217,218,219,220,221,222,223,224,225,226,227,228,229,230,231,232,233,234,235,236,237,238,239,240,241,242,243,244,245,246,247,248,249,250,251,252,253,254,255,256,257,258,259,260,261,262,263,264,265,266,267,268,269,270,271,272,273,274,275,276,277,278,279,280,281,282,283,284,285,286,287,288,289,290,291,292,293,294,295,296,297,298,299,300,301,302,303,304,305,306,307,308,309,310,311,312,313,314,315,316,317,318,319,320,321,322,323,324,325,326,327,328,329,330,331,332,333,334,335,336,337,338,339,340,341,342,343,344,345,346,347,348,349,350,351,352,353,354,355,356,357,358,359,360,361,362,363,364,365,366,367,368,369,370,371,372,373,374,375,376,377,378,379,380,381,382,383,384,385,386,387,388,389,390,391,392,393,394,395,396,397,398,399,400,401,402,403,404,405,406,407,408,409,410,411,412,413,414,415,416,417,418,419,420,421,422,423,424,425,426,427,428,429,430,431,432,433,434,435,436,437,438,439,440,441,442,443,444,445,446,447,448,449,450,451,452,453,454,455,456,457,458,459,460,461,462,463,464,465,466,467,468,469,470,471,472,473,474,475,476,477,478,479,480,481,482,483,484,485,486,487,488,489,490,491,492,493,494,495,496,497,498,499,500,501,502,503,504,505,506,507,508,509,510,511,512,513,514,515,516,517,518,519,520,521,522,523,524,525,526,527,528,529,530,531,532,533,534,535,536,537,538,539,540,541,542,543,544,545,546,547,548,549,550,551,552,553,554,555,556,557,558,559,560,561,562,563,564,565,566,567,568,569,570,571,572,573,574,575,576,577,578,579,580,581,582,583,584,585,586,587,588,589,590,591,592,593,594,595,596,597,598,599,600,601,602,603,604,605,606,607,608,609,610,611,612,613,614,615,616,617,618,619,620,621,622,623,624,625,626,627,628,629,630,631,632,633,634,635,636,637,638,639,640,641,642,643,644,645,646,647,648,649,650,651,652,653,654,655,656,657,658,659,660,661,662,663,664,665,666,667,668,669,670,671,672,673,674,675,676,677,678,679,680,681,682,683,684,685,686,687,688,689,690,691,692,693,694,695,696,697,698,699,700,701,702,703,704,705,706,707,708,709,710,711,712,713,714,715,716,717,718,719,720,721,722,723,724,725,726,727,728,729,730,731,732,733,734,735,736,737,738,739,740,741,742,743,744,745,746,747,748,749,750,751,752,753,754,755,756,757,758,759,760,761,762,763,764,765,766,767,768,769,770,771,772,773,774,775,776,777,778,779,780,781,782,783,784,785,786,787,788,789,790,791,792,793,794,795,796,797,798,799,800],"tree_info":[0,0,0,0,0,0,0,0,0,0,0,0,0,0,0,0,0,0,0,0,0,0,0,0,0,0,0,0,0,0,0,0,0,0,0,0,0,0,0,0,0,0,0,0,0,0,0,0,0,0,0,0,0,0,0,0,0,0,0,0,0,0,0,0,0,0,0,0,0,0,0,0,0,0,0,0,0,0,0,0,0,0,0,0,0,0,0,0,0,0,0,0,0,0,0,0,0,0,0,0,0,0,0,0,0,0,0,0,0,0,0,0,0,0,0,0,0,0,0,0,0,0,0,0,0,0,0,0,0,0,0,0,0,0,0,0,0,0,0,0,0,0,0,0,0,0,0,0,0,0,0,0,0,0,0,0,0,0,0,0,0,0,0,0,0,0,0,0,0,0,0,0,0,0,0,0,0,0,0,0,0,0,0,0,0,0,0,0,0,0,0,0,0,0,0,0,0,0,0,0,0,0,0,0,0,0,0,0,0,0,0,0,0,0,0,0,0,0,0,0,0,0,0,0,0,0,0,0,0,0,0,0,0,0,0,0,0,0,0,0,0,0,0,0,0,0,0,0,0,0,0,0,0,0,0,0,0,0,0,0,0,0,0,0,0,0,0,0,0,0,0,0,0,0,0,0,0,0,0,0,0,0,0,0,0,0,0,0,0,0,0,0,0,0,0,0,0,0,0,0,0,0,0,0,0,0,0,0,0,0,0,0,0,0,0,0,0,0,0,0,0,0,0,0,0,0,0,0,0,0,0,0,0,0,0,0,0,0,0,0,0,0,0,0,0,0,0,0,0,0,0,0,0,0,0,0,0,0,0,0,0,0,0,0,0,0,0,0,0,0,0,0,0,0,0,0,0,0,0,0,0,0,0,0,0,0,0,0,0,0,0,0,0,0,0,0,0,0,0,0,0,0,0,0,0,0,0,0,0,0,0,0,0,0,0,0,0,0,0,0,0,0,0,0,0,0,0,0,0,0,0,0,0,0,0,0,0,0,0,0,0,0,0,0,0,0,0,0,0,0,0,0,0,0,0,0,0,0,0,0,0,0,0,0,0,0,0,0,0,0,0,0,0,0,0,0,0,0,0,0,0,0,0,0,0,0,0,0,0,0,0,0,0,0,0,0,0,0,0,0,0,0,0,0,0,0,0,0,0,0,0,0,0,0,0,0,0,0,0,0,0,0,0,0,0,0,0,0,0,0,0,0,0,0,0,0,0,0,0,0,0,0,0,0,0,0,0,0,0,0,0,0,0,0,0,0,0,0,0,0,0,0,0,0,0,0,0,0,0,0,0,0,0,0,0,0,0,0,0,0,0,0,0,0,0,0,0,0,0,0,0,0,0,0,0,0,0,0,0,0,0,0,0,0,0,0,0,0,0,0,0,0,0,0,0,0,0,0,0,0,0,0,0,0,0,0,0,0,0,0,0,0,0,0,0,0,0,0,0,0,0,0,0,0,0,0,0,0,0,0,0,0,0,0,0,0,0,0,0,0,0,0,0,0,0,0,0,0,0,0,0,0,0,0,0,0,0,0,0,0,0,0,0,0,0,0,0,0,0,0,0,0,0,0,0,0,0,0,0,0,0,0,0,0,0,0,0,0,0,0,0,0,0,0,0,0,0,0,0,0,0,0,0,0,0,0,0,0,0,0,0,0,0,0,0,0,0,0,0,0,0,0,0,0,0,0,0,0,0,0,0,0,0,0,0,0,0,0,0,0,0,0,0,0,0,0,0,0,0,0,0,0,0,0,0,0,0,0,0,0,0,0,0,0,0,0,0,0,0,0,0,0,0,0,0,0,0,0,0,0],"trees":[{"base_weights":[2.2238402E-3,-4.5274344E-1,3.7108028E-1,-6.637515E-1,4.2129424E-1,1.8489277E-1,1.2878232E0,-9.387379E-1,-4.2553616E-1,8.0951464E-1,-4.8543096E-2,1.0943395E-2,5.3277546E-1,1.5461494E0,8.665719E-1,-1.320293E0,-8.0470353E-1,-7.9849017E-1,-3.14915E-1,4.132151E-1,9.65727E-1,-2.7317274E-1,1.940151E-1,-1.5706596E-1,1.9289832E-1,3.217506E-1,8.150196E-1,1.329636E0,1.6507488E0,6.539234E-1,1.06639E0,-4.217894E-2,-3.0016808E-2,-2.6850767E-2,-1.6302397E-2,-3.192757E-2,-2.0691292E-2,-3.8656506E-3,-1.2454024E-2,7.820533E-3,2.4587074E-2,2.6313487E-2,3.9766636E-2,-1.2346521E-2,9.7340054E-4,3.2312693E-3,1.6680961E-2,-1.3266555E-2,-9.069351E-4,1.1267075E-2,1.2821762E-3,4.568018E-3,1.2962638E-2,3.0275222E-2,2.0808661E-2,3.756025E-2,5.2860964E-2,5.414975E-2,4.5637894E-2,1.7618043E-2,3.1853512E-2,2.7960755E-2,3.5222698E-2],"categories":[],"categories_nodes":[],"categories_segments":[],"categories_sizes":[],"default_left":[0,0,0,0,0,0,0,0,0,0,0,0,0,0,0,0,0,0,0,0,0,0,0,0,0,0,0,0,0,0,0,0,0,0,0,0,0,0,0,0,0,0,0,0,0,0,0,0,0,0,0,0,0,0,0,0,0,0,0,0,0,0,0],"id":0,"left_children":[1,3,5,7,9,11,13,15,17,19,21,23,25,27,29,31,33,35,37,39,41,43,45,47,49,51,53,55,57,59,61,-1,-1,-1,-1,-1,-1,-1,-1,-1,-1,-1,-1,-1,-1,-1,-1,-1,-1,-1,-1,-1,-1,-1,-1,-1,-1,-1,-1,-1,-1,-1,-1],"loss_changes":[3.7312578E3,1.8373884E3,2.094664E3,5.23426E2,3.5387088E2,6.179396E2,2.1877637E2,1.8488306E2,1.7643494E2,6.3749878E1,4.832144E1,2.0842578E2,2.014328E2,1.7968506E1,3.0463684E1,1.9235352E1,6.2822998E1,2.4719238E1,6.1826263E1,1.8084023E1,1.8355225E1,1.9520618E1,1.3041859E1,1.2814612E2,8.969714E1,3.6248917E1,3.0747131E1,3.805725E0,3.0673828E0,7.7566833E0,3.7490845E-1,0E0,0E0,0E0,0E0,0E0,0E0,0E0,0E0,0E0,0E0,0E0,0E0,0E0,0E0,0E0,0E0,0E0,0E0,0E0,0E0,0E0,0E0,0E0,0E0,0E0,0E0,0E0,0E0,0E0,0E0,0E0,0E0],"parents":[2147483647,0,0,1,1,2,2,3,3,4,4,5,5,6,6,7,7,8,8,9,9,10,10,11,11,12,12,13,13,14,14,15,15,16,16,17,17,18,18,19,19,20,20,21,21,22,22,23,23,24,24,25,25,26,26,27,27,28,28,29,29,30,30],"right_children":[2,4,6,8,10,12,14,16,18,20,22,24,26,28,30,32,34,36,38,40,42,44,46,48,50,52,54,56,58,60,62,-1,-1,-1,-1,-1,-1,-1,-1,-1,-1,-1,-1,-1,-1,-1,-1,-1,-1,-1,-1,-1,-1,-1,-1,-1,-1,-1,-1,-1,-1,-1,-1],"split_conditions":[5.85681E1,1.95E3,1.781E3,4.62053E1,1E0,1.298E3,1E0,1.194E3,1.197E3,4.13901E1,4.47E1,7.14E1,7.3E1,6.656E1,7.03783E1,1.983E1,2.041E1,9.98E2,1E2,2.956E3,2.776E3,3.7E1,3.7E1,1.197E3,2.03E1,6.41129E1,1E0,2.835E3,2.1E1,3E2,7.74631E1,-4.217894E-2,-3.0016808E-2,-2.6850767E-2,-1.6302397E-2,-3.192757E-2,-2.0691292E-2,-3.8656506E-3,-1.2454024E-2,7.820533E-3,2.4587074E-2,2.6313487E-2,3.9766636E-2,-1.2346521E-2,9.7340054E-4,3.2312693E-3,1.6680961E-2,-1.3266555E-2,-9.069351E-4,1.1267075E-2,1.2821762E-3,4.568018E-3,1.2962638E-2,3.0275222E-2,2.0808661E-2,3.756025E-2,5.2860964E-2,5.414975E-2,4.5637894E-2,1.7618043E-2,3.1853512E-2,2.7960755E-2,3.5222698E-2],"split_indices":[12,8,8,12,4,8,4,8,8,12,12,12,12,12,12,6,6,8,11,8,8,0,0,8,6,12,4,8,0,1,12,0,0,0,0,0,0,0,0,0,0,0,0,0,0,0,0,0,0,0,0,0,0,0,0,0,0,0,0,0,0,0,0],"split_type":[0,0,0,0,0,0,0,0,0,0,0,0,0,0,0,0,0,0,0,0,0,0,0,0,0,0,0,0,0,0,0,0,0,0,0,0,0,0,0,0,0,0,0,0,0,0,0,0,0,0,0,0,0,0,0,0,0,0,0,0,0,0,0],"sum_hessian":[2.2224E4,9.95E3,1.2274E4,8.016E3,1.934E3,1.0207E4,2.067E3,3.714E3,4.302E3,1.057E3,8.77E2,6.808E3,3.399E3,1.273E3,7.94E2,9.54E2,2.76E3,9.77E2,3.325E3,3.04E2,7.53E2,4.55E2,4.22E2,3.54E3,3.268E3,1.951E3,1.448E3,4.37E2,8.36E2,3.95E2,3.99E2,7.39E2,2.15E2,2.042E3,7.18E2,2.71E2,7.06E2,1.168E3,2.157E3,2.27E2,7.7E1,6.18E2,1.35E2,3.12E2,1.43E2,3.46E2,7.6E1,1.086E3,2.454E3,1.471E3,1.797E3,7.74E2,1.177E3,5.43E2,9.05E2,3.87E2,5E1,3.52E2,4.84E2,3.5E2,4.5E1,1.99E2,2E2],"tree_param":{"num_deleted":"0","num_feature":"13","num_nodes":"63","size_leaf_vector":"1"}},{"base_weights":[-2.9183489E-3,3.3379102E-1,-5.561899E-1,1.4876617E-1,1.1742489E0,-7.3639214E-1,2.7441055E-1,-1.2228792E-2,4.463088E-1,1.4395627E0,7.6616186E-1,-4.9687204E-1,-1.0564467E0,6.5637195E-1,-1.4912866E-1,1.5223998E-1,-2.1931157E-1,7.734331E-1,2.3228848E-1,1.2219768E0,1.5869716E0,9.0560436E-1,4.0221098E-1,-7.9629815E-1,-4.1289327E-1,-1.3398564E0,-9.2896867E-1,7.629065E-1,1.0570239E-1,5.159878E-2,-4.4560397E-1,9.875883E-3,7.793245E-4,-1.5624016E-2,-2.4855474E-3,2.8583342E-2,1.9773567E-2,1.1627315E-2,2.5024698E-3,3.4488004E-2,4.9172927E-2,3.1904344E-2,4.8455592E-2,2.2849537E-2,3.2254633E-2,9.7997915E-3,2.1323461E-2,-3.0872826E-2,-2.0448443E-2,-1.4669132E-2,-7.5421687E-3,-3.5289735E-2,-4.4169452E-2,-2.4778785E-2,-3.2921493E-2,1.9692335E-2,3.4210265E-2,-4.2074746E-3,1.3032206E-2,-1.2234602E-3,1.1666822E-2,-1.7901598E-2,-4.3123313E-3],"categories":[],"categories_nodes":[],"categories_segments":[],"categories_sizes":[],"default_left":[0,0,0,0,0,0,0,0,0,0,0,0,0,0,0,0,0,0,0,0,0,0,0,0,0,0,0,0,0,0,0,0,0,0,0,0,0,0,0,0,0,0,0,0,0,0,0,0,0,0,0,0,0,0,0,0,0,0,0,0,0,0,0],"id":1,"left_children":[1,3,5,7,9,11,13,15,17,19,21,23,25,27,29,31,33,35,37,39,41,43,45,47,49,51,53,55,57,59,61,-1,-1,-1,-1,-1,-1,-1,-1,-1,-1,-1,-1,-1,-1,-1,-1,-1,-1,-1,-1,-1,-1,-1,-1,-1,-1,-1,-1,-1,-1,-1,-1],"loss_changes":[4.171627E3,2.16392E3,1.2690662E3,5.4683844E2,2.6635425E2,5.311553E2,2.4541776E2,2.5260963E2,2.7970673E2,3.892798E1,4.8928955E1,9.873663E1,1.0129468E2,4.6353058E1,4.308171E1,9.232288E1,1.3485074E2,2.9314148E1,5.6015747E1,9.718811E0,4.5126953E0,1.3454407E1,5.5065765E0,1.9693176E1,3.781476E1,1.1095581E1,3.136145E1,2.3067505E1,1.1218753E1,1.3633728E1,1.2890938E1,0E0,0E0,0E0,0E0,0E0,0E0,0E0,0E0,0E0,0E0,0E0,0E0,0E0,0E0,0E0,0E0,0E0,0E0,0E0,0E0,0E0,0E0,0E0,0E0,0E0,0E0,0E0,0E0,0E0,0E0,0E0,0E0],"parents":[2147483647,0,0,1,1,2,2,3,3,4,4,5,5,6,6,7,7,8,8,9,9,10,10,11,11,12,12,13,13,14,14,15,15,16,16,17,17,18,18,19,19,20,20,21,21,22,22,23,23,24,24,25,25,26,26,27,27,28,28,29,29,30,30],"right_children":[2,4,6,8,10,12,14,16,18,20,22,24,26,28,30,32,34,36,38,40,42,44,46,48,50,52,54,56,58,60,62,-1,-1,-1,-1,-1,-1,-1,-1,-1,-1,-1,-1,-1,-1,-1,-1,-1,-1,-1,-1,-1,-1,-1,-1,-1,-1,-1,-1,-1,-1,-1,-1],"split_conditions":[1.2E1,1.599E3,1.95E3,1.298E3,1E0,1.5E1,1E0,9E0,8E0,6.5516E1,1E1,1.197E3,1.194E3,1.6E1,1.5E1,2.03E1,1.197E3,1E0,1E1,2.835E3,1.948E3,7.37E1,3E2,9.98E2,1.497E3,1.7E1,1.7E1,2.956E3,2.393E3,3.7E1,3.7E1,9.875883E-3,7.793245E-4,-1.5624016E-2,-2.4855474E-3,2.8583342E-2,1.9773567E-2,1.1627315E-2,2.5024698E-3,3.4488004E-2,4.9172927E-2,3.1904344E-2,4.8455592E-2,2.2849537E-2,3.2254633E-2,9.7997915E-3,2.1323461E-2,-3.0872826E-2,-2.0448443E-2,-1.4669132E-2,-7.5421687E-3,-3.5289735E-2,-4.4169452E-2,-2.4778785E-2,-3.2921493E-2,1.9692335E-2,3.4210265E-2,-4.2074746E-3,1.3032206E-2,-1.2234602E-3,1.1666822E-2,-1.7901598E-2,-4.3123313E-3],"split_indices":[2,8,8,8,4,2,4,2,2,12,2,8,8,2,2,6,8,4,2,8,8,12,1,8,8,2,2,8,8,0,0,0,0,0,0,0,0,0,0,0,0,0,0,0,0,0,0,0,0,0,0,0,0,0,0,0,0,0,0,0,0,0,0],"split_type":[0,0,0,0,0,0,0,0,0,0,0,0,0,0,0,0,0,0,0,0,0,0,0,0,0,0,0,0,0,0,0,0,0,0,0,0,0,0,0,0,0,0,0,0,0,0,0,0,0,0,0,0,0,0,0,0,0,0,0,0,0,0,0],"sum_hessian":[2.2383E4,1.3916E4,8.467E3,1.141E4,2.506E3,6.958E3,1.509E3,7.407E3,4.003E3,1.511E3,9.95E2,3.987E3,2.971E3,7.92E2,7.17E2,4.129E3,3.278E3,1.578E3,2.425E3,6.29E2,8.82E2,7.14E2,2.81E2,8.64E2,3.123E3,9.07E2,2.064E3,6.62E2,1.3E2,4.3E2,2.87E2,1.716E3,2.413E3,1.017E3,2.261E3,6E2,9.78E2,1.183E3,1.242E3,5.52E2,7.7E1,5.5E1,8.27E2,4.01E2,3.13E2,2.34E2,4.7E1,2.72E2,5.92E2,2.116E3,1.007E3,4.28E2,4.79E2,1.299E3,7.65E2,5.27E2,1.35E2,7.6E1,5.4E1,3.41E2,8.9E1,1.88E2,9.9E1],"tree_param":{"num_deleted":"0","num_feature":"13","num_nodes":"63","size_leaf_vector":"1"}},{"base_weights":[-2.8195497E-4,3.2126018E-1,-5.306046E-1,8.071007E-1,1.2761381E-1,3.359402E-1,-6.81227E-1,1.1564077E0,5.543268E-1,3.7470472E-1,-1.3174217E-2,6.447315E-1,-1.330765E-1,-4.4605723E-1,-1.0003762E0,1.3686488E0,9.7469693E-1,7.776585E-1,3.0396444E-1,5.852673E-1,2.7479714E-1,1.3429889E-1,-1.3191585E-1,4.1252306E-1,7.649112E-1,-2.840227E-1,1.479616E-1,-9.2728204E-1,-4.141693E-1,-1.046525E0,-4.8301268E-1,4.8376076E-2,3.8095325E-2,3.949446E-2,2.5897387E-2,5.3303834E-2,2.2028191E-2,2.345614E-2,8.232455E-3,2.8266935E-3,2.2548905E-2,1.2551406E-2,5.590676E-3,8.899863E-3,-4.5931042E-4,-2.2288775E-2,-3.0423922E-3,4.259042E-3,1.5192884E-2,2.3805238E-2,1.4327047E-2,-4.4108876E-3,-1.6319424E-2,1.7908398E-2,-5.335732E-3,-3.302627E-2,-2.3701066E-2,-8.999594E-3,-1.4888365E-2,-2.7460393E-2,-3.632094E-2,-9.09239E-3,-2.0413563E-2],"categories":[],"categories_nodes":[],"categories_segments":[],"categories_sizes":[],"default_left":[0,0,0,0,0,0,0,0,0,0,0,0,0,0,0,0,0,0,0,0,0,0,0,0,0,0,0,0,0,0,0,0,0,0,0,0,0,0,0,0,0,0,0,0,0,0,0,0,0,0,0,0,0,0,0,0,0,0,0,0,0,0,0],"id":2,"left_children":[1,3,5,7,9,11,13,15,17,19,21,23,25,27,29,31,33,35,37,39,41,43,45,47,49,51,53,55,57,59,61,-1,-1,-1,-1,-1,-1,-1,-1,-1,-1,-1,-1,-1,-1,-1,-1,-1,-1,-1,-1,-1,-1,-1,-1,-1,-1,-1,-1,-1,-1,-1,-1],"loss_changes":[3.8002327E3,1.3047684E3,1.0990874E3,3.4582788E2,3.4532483E2,1.8131953E2,5.3575806E2,5.7157227E1,1.2758777E2,7.4991394E1,1.1089944E2,1.9463928E1,2.1420935E1,6.154767E1,6.998291E1,7.8587646E0,2.8943542E1,4.6101135E1,1.4376457E1,9.399963E1,3.076001E1,6.864488E1,6.500718E1,6.4495583E0,2.139801E0,1.1245373E1,2.6570122E1,1.6791077E0,3.570752E1,5.441504E1,8.134525E0,0E0,0E0,0E0,0E0,0E0,0E0,0E0,0E0,0E0,0E0,0E0,0E0,0E0,0E0,0E0,0E0,0E0,0E0,0E0,0E0,0E0,0E0,0E0,0E0,0E0,0E0,0E0,0E0,0E0,0E0,0E0,0E0],"parents":[2147483647,0,0,1,1,2,2,3,3,4,4,5,5,6,6,7,7,8,8,9,9,10,10,11,11,12,12,13,13,14,14,15,15,16,16,17,17,18,18,19,19,20,20,21,21,22,22,23,23,24,24,25,25,26,26,27,27,28,28,29,29,30,30],"right_children":[2,4,6,8,10,12,14,16,18,20,22,24,26,28,30,32,34,36,38,40,42,44,46,48,50,52,54,56,58,60,62,-1,-1,-1,-1,-1,-1,-1,-1,-1,-1,-1,-1,-1,-1,-1,-1,-1,-1,-1,-1,-1,-1,-1,-1,-1,-1,-1,-1,-1,-1,-1,-1],"split_conditions":[1.2E1,1E0,1E0,2E0,8E0,2E0,1.5E1,5.0105E4,8E0,2E0,2E0,4.2E1,2.5E1,6.3E1,3.7E1,1.1E1,1.1E1,4E0,7.1E1,1E0,2.2E1,1E1,7E0,3.12215E1,3.3E1,1.6E1,2.9E1,3.2E1,1.3E1,1.7E1,3.08E2,4.8376076E-2,3.8095325E-2,3.949446E-2,2.5897387E-2,5.3303834E-2,2.2028191E-2,2.345614E-2,8.232455E-3,2.8266935E-3,2.2548905E-2,1.2551406E-2,5.590676E-3,8.899863E-3,-4.5931042E-4,-2.2288775E-2,-3.0423922E-3,4.259042E-3,1.5192884E-2,2.3805238E-2,1.4327047E-2,-4.4108876E-3,-1.6319424E-2,1.7908398E-2,-5.335732E-3,-3.302627E-2,-2.3701066E-2,-8.999594E-3,-1.4888365E-2,-2.7460393E-2,-3.632094E-2,-9.09239E-3,-2.0413563E-2],"split_indices":[2,4,4,3,2,3,2,5,2,3,3,12,0,1,0,0,0,0,1,3,0,2,0,12,0,2,0,1,2,2,1,0,0,0,0,0,0,0,0,0,0,0,0,0,0,0,0,0,0,0,0,0,0,0,0,0,0,0,0,0,0,0,0],"split_type":[0,0,0,0,0,0,0,0,0,0,0,0,0,0,0,0,0,0,0,0,0,0,0,0,0,0,0,0,0,0,0,0,0,0,0,0,0,0,0,0,0,0,0,0,0,0,0,0,0,0,0,0,0,0,0,0,0,0,0,0,0,0,0],"sum_hessian":[2.2276E4,1.3869E4,8.407E3,3.948E3,9.921E3,1.244E3,7.163E3,1.65E3,2.298E3,3.598E3,6.323E3,7.49E2,4.95E2,4.131E3,3.032E3,7.46E2,9.04E2,1.209E3,1.089E3,1.15E3,2.448E3,2.82E3,3.503E3,2.63E2,4.86E2,3.22E2,1.73E2,2.48E2,3.883E3,2.779E3,2.53E2,1.93E2,5.53E2,2.09E2,6.95E2,4.2E1,1.167E3,5.6E1,1.033E3,2.93E2,8.57E2,9.26E2,1.522E3,1.35E3,1.47E3,1.61E2,3.342E3,7.1E1,1.92E2,4.34E2,5.2E1,2.16E2,1.06E2,7.1E1,1.02E2,9.4E1,1.54E2,1.634E3,2.249E3,1.563E3,1.216E3,1.39E2,1.14E2],"tree_param":{"num_deleted":"0","num_feature":"13","num_nodes":"63","size_leaf_vector":"1"}},{"base_weights":[2.741751E-3,3.1401876E-1,-5.1682115E-1,1.3746072E-1,1.1241369E0,-6.931038E-1,2.7273923E-1,-1.975247E-2,4.3003306E-1,1.3638567E0,7.404755E-1,-4.6934956E-1,-9.937003E-1,6.1733735E-1,-1.2830606E-1,2.0257619E-1,-1.6098358E-1,6.588368E-1,1.5991652E-1,1.5286417E0,1.1871262E0,8.633733E-1,3.94912E-1,-7.6037925E-1,-3.878327E-1,-1.2629156E0,-8.636353E-1,7.199353E-1,9.706075E-2,5.214135E-2,-3.94572E-1,1.1485452E-2,1.2779521E-3,-1.3442052E-2,-7.963586E-4,2.5505453E-2,1.65963E-2,2.6188397E-3,1.1212378E-2,5.3493407E-2,4.333491E-2,3.3472773E-2,4.8456147E-2,3.144559E-2,2.2427062E-2,9.703972E-3,2.099697E-2,-2.942538E-2,-1.9490328E-2,-1.3929609E-2,-6.772127E-3,-3.323171E-2,-4.2247877E-2,-3.6146007E-2,-2.4460303E-2,1.8744674E-2,3.2332443E-2,-3.518466E-3,1.628352E-2,-1.1126706E-3,1.1324267E-2,-5.9895734E-3,-1.7762655E-2],"categories":[],"categories_nodes":[],"categories_segments":[],"categories_sizes":[],"default_left":[0,0,0,0,0,0,0,0,0,0,0,0,0,0,0,0,0,0,0,0,0,0,0,0,0,0,0,0,0,0,0,0,0,0,0,0,0,0,0,0,0,0,0,0,0,0,0,0,0,0,0,0,0,0,0,0,0,0,0,0,0,0,0],"id":3,"left_children":[1,3,5,7,9,11,13,15,17,19,21,23,25,27,29,31,33,35,37,39,41,43,45,47,49,51,53,55,57,59,61,-1,-1,-1,-1,-1,-1,-1,-1,-1,-1,-1,-1,-1,-1,-1,-1,-1,-1,-1,-1,-1,-1,-1,-1,-1,-1,-1,-1,-1,-1,-1,-1],"loss_changes":[3.6243267E3,2.0036901E3,1.1695496E3,5.295511E2,2.2552246E2,4.59406E2,2.1267041E2,2.3544116E2,2.481712E2,3.568799E1,3.9702454E1,9.211609E1,9.696704E1,4.3795288E1,3.4408424E1,8.392808E1,1.768995E2,4.164801E1,2.8596004E1,3.7803955E0,1.4329834E1,1.1384644E1,4.6424294E0,1.7754211E1,3.781134E1,1.3448608E1,2.7847656E1,2.0115479E1,1.3884637E1,1.2552769E1,1.0535389E1,0E0,0E0,0E0,0E0,0E0,0E0,0E0,0E0,0E0,0E0,0E0,0E0,0E0,0E0,0E0,0E0,0E0,0E0,0E0,0E0,0E0,0E0,0E0,0E0,0E0,0E0,0E0,0E0,0E0,0E0,0E0,0E0],"parents":[2147483647,0,0,1,1,2,2,3,3,4,4,5,5,6,6,7,7,8,8,9,9,10,10,11,11,12,12,13,13,14,14,15,15,16,16,17,17,18,18,19,19,20,20,21,21,22,22,23,23,24,24,25,25,26,26,27,27,28,28,29,29,30,30],"right_children":[2,4,6,8,10,12,14,16,18,20,22,24,26,28,30,32,34,36,38,40,42,44,46,48,50,52,54,56,58,60,62,-1,-1,-1,-1,-1,-1,-1,-1,-1,-1,-1,-1,-1,-1,-1,-1,-1,-1,-1,-1,-1,-1,-1,-1,-1,-1,-1,-1,-1,-1,-1,-1],"split_conditions":[1.2E1,1.599E3,1.95E3,1.298E3,1E0,1.5E1,1E0,8E0,9E0,9E0,1E1,1.197E3,1.197E3,1.6E1,1.5E1,2.03E1,1.197E3,1E0,1.582E3,4E0,2.835E3,7E0,3E2,9.98E2,1.497E3,1.7E1,1.1E1,2.956E3,2.498E3,3.7E1,1.3E1,1.1485452E-2,1.2779521E-3,-1.3442052E-2,-7.963586E-4,2.5505453E-2,1.65963E-2,2.6188397E-3,1.1212378E-2,5.3493407E-2,4.333491E-2,3.3472773E-2,4.8456147E-2,3.144559E-2,2.2427062E-2,9.703972E-3,2.099697E-2,-2.942538E-2,-1.9490328E-2,-1.3929609E-2,-6.772127E-3,-3.323171E-2,-4.2247877E-2,-3.6146007E-2,-2.4460303E-2,1.8744674E-2,3.2332443E-2,-3.518466E-3,1.628352E-2,-1.1126706E-3,1.1324267E-2,-5.9895734E-3,-1.7762655E-2],"split_indices":[2,8,8,8,4,2,4,2,2,2,2,8,8,2,2,6,8,4,8,0,8,2,1,8,8,2,0,8,8,0,6,0,0,0,0,0,0,0,0,0,0,0,0,0,0,0,0,0,0,0,0,0,0,0,0,0,0,0,0,0,0,0,0],"split_type":[0,0,0,0,0,0,0,0,0,0,0,0,0,0,0,0,0,0,0,0,0,0,0,0,0,0,0,0,0,0,0,0,0,0,0,0,0,0,0,0,0,0,0,0,0,0,0,0,0,0,0,0,0,0,0,0,0,0,0,0,0,0,0],"sum_hessian":[2.24E4,1.4009E4,8.391E3,1.1507E4,2.502E3,6.86E3,1.531E3,7.488E3,4.019E3,1.532E3,9.7E2,3.94E3,2.92E3,8.22E2,7.09E2,2.908E3,4.58E3,2.172E3,1.847E3,7.73E2,7.59E2,7.1E2,2.6E2,8.53E2,3.087E3,9.37E2,1.983E3,6.85E2,1.37E2,4.25E2,2.84E2,1.364E3,1.544E3,1.457E3,3.123E3,7.6E2,1.412E3,1.384E3,4.63E2,1.67E2,6.06E2,6.66E2,9.3E1,2.58E2,4.52E2,2.19E2,4.1E1,2.72E2,5.81E2,2.091E3,9.96E2,4.74E2,4.63E2,2.31E2,1.752E3,5.52E2,1.33E2,9.5E1,4.2E1,3.37E2,8.8E1,1.48E2,1.36E2],"tree_param":{"num_deleted":"0","num_feature":"13","num_nodes":"63","size_leaf_vector":"1"}},{"base_weights":[-1.3479312E-3,3.0437973E-1,-5.0444007E-1,1.3359487E-1,1.0779208E0,-6.723495E-1,2.6020104E-1,-1.7393963E-2,4.1549817E-1,1.3153392E0,7.1607596E-1,-4.5282936E-1,-9.668806E-1,6.0741204E-1,-1.20659515E-1,1.3570885E-1,-2.0760034E-1,7.154152E-1,2.1880765E-1,1.1272924E0,1.458395E0,4.7380906E-1,9.1948223E-1,-7.4341345E-1,-3.7037316E-1,-1.2196952E0,-8.4722316E-1,7.09946E-1,7.832168E-2,5.389892E-2,-3.8949397E-1,9.015627E-3,5.5284204E-4,-1.4734405E-2,-2.4769867E-3,2.8969603E-2,1.924402E-2,1.0885463E-2,2.3643589E-3,3.170393E-2,4.5938548E-2,5.0394762E-2,4.1267965E-2,1.7742667E-2,8.368843E-3,2.450087E-2,3.1310216E-2,-2.895038E-2,-1.8885346E-2,-1.3321315E-2,-6.536966E-3,-3.2225788E-2,-4.064762E-2,-2.8238663E-2,-2.0042134E-2,1.8239243E-2,3.2162447E-2,-3.711123E-3,1.1502696E-2,-1.1924357E-3,1.1815456E-2,-5.529242E-3,-1.7906262E-2],"categories":[],"categories_nodes":[],"categories_segments":[],"categories_sizes":[],"default_left":[0,0,0,0,0,0,0,0,0,0,0,0,0,0,0,0,0,0,0,0,0,0,0,0,0,0,0,0,0,0,0,0,0,0,0,0,0,0,0,0,0,0,0,0,0,0,0,0,0,0,0,0,0,0,0,0,0,0,0,0,0,0,0],"id":4,"left_children":[1,3,5,7,9,11,13,15,17,19,21,23,25,27,29,31,33,35,37,39,41,43,45,47,49,51,53,55,57,59,61,-1,-1,-1,-1,-1,-1,-1,-1,-1,-1,-1,-1,-1,-1,-1,-1,-1,-1,-1,-1,-1,-1,-1,-1,-1,-1,-1,-1,-1,-1,-1,-1],"loss_changes":[3.431482E3,1.832558E3,1.0835913E3,4.8411932E2,2.108352E2,4.449685E2,2.0163419E2,2.1595757E2,2.3323395E2,3.2374023E1,4.734668E1,9.379431E1,8.40437E1,4.2959015E1,3.4361908E1,7.939637E1,1.1704027E2,2.5936523E1,4.8313835E1,1.110376E1,3.8463135E0,9.922989E0,2.6441956E0,1.8997559E1,3.4383057E1,1.113916E1,3.086316E1,2.1371582E1,8.558335E0,1.4308601E1,1.1704861E1,0E0,0E0,0E0,0E0,0E0,0E0,0E0,0E0,0E0,0E0,0E0,0E0,0E0,0E0,0E0,0E0,0E0,0E0,0E0,0E0,0E0,0E0,0E0,0E0,0E0,0E0,0E0,0E0,0E0,0E0,0E0,0E0],"parents":[2147483647,0,0,1,1,2,2,3,3,4,4,5,5,6,6,7,7,8,8,9,9,10,10,11,11,12,12,13,13,14,14,15,15,16,16,17,17,18,18,19,19,20,20,21,21,22,22,23,23,24,24,25,25,26,26,27,27,28,28,29,29,30,30],"right_children":[2,4,6,8,10,12,14,16,18,20,22,24,26,28,30,32,34,36,38,40,42,44,46,48,50,52,54,56,58,60,62,-1,-1,-1,-1,-1,-1,-1,-1,-1,-1,-1,-1,-1,-1,-1,-1,-1,-1,-1,-1,-1,-1,-1,-1,-1,-1,-1,-1,-1,-1,-1,-1],"split_conditions":[1.2E1,1.781E3,1.95E3,1.298E3,1E0,1.5E1,1E0,9E0,8E0,6.64E1,6.69574E1,1.197E3,1.197E3,1.6E1,1.5E1,2.03E1,1.197E3,1.461E3,1E1,2.835E3,4E0,1.1E1,7.74631E1,9.98E2,1.497E3,1.7E1,1.496E3,2.956E3,2.393E3,3.7E1,1.3E1,9.015627E-3,5.5284204E-4,-1.4734405E-2,-2.4769867E-3,2.8969603E-2,1.924402E-2,1.0885463E-2,2.3643589E-3,3.170393E-2,4.5938548E-2,5.0394762E-2,4.1267965E-2,1.7742667E-2,8.368843E-3,2.450087E-2,3.1310216E-2,-2.895038E-2,-1.8885346E-2,-1.3321315E-2,-6.536966E-3,-3.2225788E-2,-4.064762E-2,-2.8238663E-2,-2.0042134E-2,1.8239243E-2,3.2162447E-2,-3.711123E-3,1.1502696E-2,-1.1924357E-3,1.1815456E-2,-5.529242E-3,-1.7906262E-2],"split_indices":[2,8,8,8,4,2,4,2,2,12,12,8,8,2,2,6,8,8,2,8,0,2,12,8,8,2,8,8,8,0,6,0,0,0,0,0,0,0,0,0,0,0,0,0,0,0,0,0,0,0,0,0,0,0,0,0,0,0,0,0,0,0,0],"split_type":[0,0,0,0,0,0,0,0,0,0,0,0,0,0,0,0,0,0,0,0,0,0,0,0,0,0,0,0,0,0,0,0,0,0,0,0,0,0,0,0,0,0,0,0,0,0,0,0,0,0,0,0,0,0,0,0,0,0,0,0,0,0,0],"sum_hessian":[2.23E4,1.3872E4,8.428E3,1.1368E4,2.504E3,6.911E3,1.517E3,7.406E3,3.962E3,1.504E3,1E3,3.967E3,2.944E3,7.92E2,7.25E2,4.104E3,3.302E3,1.564E3,2.398E3,6.69E2,8.35E2,4.64E2,5.36E2,8.68E2,3.099E3,9.31E2,2.013E3,6.62E2,1.3E2,4.42E2,2.83E2,1.703E3,2.401E3,1.006E3,2.296E3,3.43E2,1.221E3,1.178E3,1.22E3,5.85E2,8.4E1,2.01E2,6.34E2,2.83E2,1.81E2,3.14E2,2.22E2,2.82E2,5.86E2,2.083E3,1.016E3,4.7E2,4.61E2,1.306E3,7.07E2,5.27E2,1.35E2,8E1,5E1,3.5E2,9.2E1,1.47E2,1.36E2],"tree_param":{"num_deleted":"0","num_feature":"13","num_nodes":"63","size_leaf_vector":"1"}},{"base_weights":[-1.3665674E-3,2.9345974E-1,-4.8836473E-1,1.2718302E-1,1.0514506E0,-6.542653E-1,2.5935143E-1,-1.8997341E-2,3.9966238E-1,7.886972E-1,1.1825083E0,-4.422992E-1,-9.3733644E-1,1.54662E-1,8.782627E-1,1.9171973E-1,-1.5309866E-1,1.9520913E-1,6.807368E-1,7.2434956E-1,4.052751E-2,4.6752606E-2,1.097886E0,-7.235641E-1,-3.6303204E-1,-1.1828314E0,-8.1612515E-1,3.5151967E-1,-2.267731E-1,1.6204411E-2,3.0078871E-2,1.0647149E-2,1.3601094E-3,-1.2784746E-2,-8.754227E-4,1.0168298E-2,2.1243063E-3,2.7740689E-2,1.8190064E-2,2.692831E-2,1.5761372E-2,2.7656207E-2,3.7408255E-2,-2.7813818E-2,-1.8476265E-2,-1.3023649E-2,-6.3900854E-3,-3.135209E-2,-3.9408702E-2,-2.1492826E-2,-2.9320173E-2,1.8110752E-2,3.2842164E-3,9.015385E-3,-9.835765E-3],"categories":[],"categories_nodes":[],"categories_segments":[],"categories_sizes":[],"default_left":[0,0,0,0,0,0,0,0,0,0,0,0,0,0,0,0,0,0,0,0,0,0,0,0,0,0,0,0,0,0,0,0,0,0,0,0,0,0,0,0,0,0,0,0,0,0,0,0,0,0,0,0,0,0,0],"id":5,"left_children":[1,3,5,7,9,11,13,15,17,19,21,23,25,27,29,31,33,35,37,39,-1,-1,41,43,45,47,49,51,53,-1,-1,-1,-1,-1,-1,-1,-1,-1,-1,-1,-1,-1,-1,-1,-1,-1,-1,-1,-1,-1,-1,-1,-1,-1,-1],"loss_changes":[3.196374E3,1.747076E3,1.0422185E3,4.5323657E2,8.121973E1,4.102578E2,9.832525E1,2.0953436E2,2.2765027E2,2.5677307E1,4.406006E1,8.6506836E1,8.259839E1,9.8989685E1,6.543213E0,6.881112E1,1.5325311E2,4.1130013E1,2.7526001E1,2.4152405E1,0E0,0E0,3.0116455E1,1.6019379E1,3.2419464E1,1.043335E1,2.8371216E1,5.264985E1,2.4478119E1,0E0,0E0,0E0,0E0,0E0,0E0,0E0,0E0,0E0,0E0,0E0,0E0,0E0,0E0,0E0,0E0,0E0,0E0,0E0,0E0,0E0,0E0,0E0,0E0,0E0,0E0],"parents":[2147483647,0,0,1,1,2,2,3,3,4,4,5,5,6,6,7,7,8,8,9,9,10,10,11,11,12,12,13,13,14,14,15,15,16,16,17,17,18,18,19,19,22,22,23,23,24,24,25,25,26,26,27,27,28,28],"right_children":[2,4,6,8,10,12,14,16,18,20,22,24,26,28,30,32,34,36,38,40,-1,-1,42,44,46,48,50,52,54,-1,-1,-1,-1,-1,-1,-1,-1,-1,-1,-1,-1,-1,-1,-1,-1,-1,-1,-1,-1,-1,-1,-1,-1,-1,-1],"split_conditions":[1.2E1,1.781E3,1.95E3,1.298E3,6.31E1,1.5E1,2.967E3,8E0,7.14E1,2.967E3,7.1E1,1.197E3,1.197E3,1.5E1,3.62728E1,2.03E1,1.197E3,1E1,1.461E3,2.147E3,4.052751E-2,4.6752606E-2,2.2E1,9.98E2,1.497E3,1.7E1,1.7E1,2.157E3,4E0,1.6204411E-2,3.0078871E-2,1.0647149E-2,1.3601094E-3,-1.2784746E-2,-8.754227E-4,1.0168298E-2,2.1243063E-3,2.7740689E-2,1.8190064E-2,2.692831E-2,1.5761372E-2,2.7656207E-2,3.7408255E-2,-2.7813818E-2,-1.8476265E-2,-1.3023649E-2,-6.3900854E-3,-3.135209E-2,-3.9408702E-2,-2.1492826E-2,-2.9320173E-2,1.8110752E-2,3.2842164E-3,9.015385E-3,-9.835765E-3],"split_indices":[2,8,8,8,12,2,8,2,12,8,1,8,8,2,12,6,8,2,8,8,0,0,0,8,8,2,2,8,0,0,0,0,0,0,0,0,0,0,0,0,0,0,0,0,0,0,0,0,0,0,0,0,0,0,0],"split_type":[0,0,0,0,0,0,0,0,0,0,0,0,0,0,0,0,0,0,0,0,0,0,0,0,0,0,0,0,0,0,0,0,0,0,0,0,0,0,0,0,0,0,0,0,0,0,0,0,0,0,0,0,0,0,0],"sum_hessian":[2.2252E4,1.3862E4,8.39E3,1.1373E4,2.489E3,6.867E3,1.523E3,7.405E3,3.968E3,8.4E2,1.649E3,3.934E3,2.933E3,1.308E3,2.15E2,2.879E3,4.526E3,2.302E3,1.666E3,7.64E2,7.6E1,2.87E2,1.362E3,8.56E2,3.078E3,9.55E2,1.978E3,8.63E2,4.45E2,6.5E1,1.5E2,1.358E3,1.521E3,1.409E3,3.117E3,1.064E3,1.238E3,3.76E2,1.29E3,3.99E2,3.65E2,6.41E2,7.21E2,2.83E2,5.73E2,2.082E3,9.96E2,4.87E2,4.68E2,1.239E3,7.39E2,4.19E2,4.44E2,7E1,3.75E2],"tree_param":{"num_deleted":"0","num_feature":"13","num_nodes":"55","size_leaf_vector":"1"}},{"base_weights":[-8.384504E-4,-3.7791857E-1,3.1363943E-1,-5.5185324E-1,3.553231E-1,1.5761712E-1,1.0773238E0,-8.290678E-1,-3.8546187E-1,6.4694785E-2,5.7000375E-1,8.437915E-3,4.5007676E-1,1.4604157E0,1.0002029E0,-1.1318809E0,-7.121081E-1,-7.1589714E-1,-2.8561404E-1,-5.7074647E-2,7.098362E-1,4.9709654E-1,3.228051E-2,-1.3253543E-1,1.6221781E-1,2.780219E-1,6.96177E-1,3.3634163E-2,4.8014544E-2,8.173542E-1,1.167348E0,-3.6165472E-2,-2.7688064E-2,-2.3479013E-2,-1.4538169E-2,-2.8209323E-2,-1.8533392E-2,-1.1017607E-2,-3.5577943E-3,1.42236175E-2,-5.63192E-3,1.5578094E-2,2.5678877E-2,2.2212066E-2,7.840971E-3,-1.1588583E-2,-4.599035E-4,9.604325E-3,8.380813E-4,4.8793675E-3,1.1857604E-2,2.8409163E-2,1.8566296E-2,3.165315E-2,1.9051537E-2,4.6886623E-2,2.9958097E-2],"categories":[],"categories_nodes":[],"categories_segments":[],"categories_sizes":[],"default_left":[0,0,0,0,0,0,0,0,0,0,0,0,0,0,0,0,0,0,0,0,0,0,0,0,0,0,0,0,0,0,0,0,0,0,0,0,0,0,0,0,0,0,0,0,0,0,0,0,0,0,0,0,0,0,0,0,0],"id":6,"left_children":[1,3,5,7,9,11,13,15,17,19,21,23,25,27,29,31,33,35,37,39,41,43,-1,45,47,49,51,-1,-1,53,55,-1,-1,-1,-1,-1,-1,-1,-1,-1,-1,-1,-1,-1,-1,-1,-1,-1,-1,-1,-1,-1,-1,-1,-1,-1,-1],"loss_changes":[2.6317202E3,1.2880752E3,1.4410067E3,3.7474487E2,1.2073184E2,4.3862592E2,5.332129E1,1.042041E2,1.6750714E2,6.532756E1,3.842331E1,1.4455377E2,1.4282819E2,6.8530273E0,4.79187E1,7.4071045E0,3.3690918E1,2.3121765E1,5.3383392E1,4.916654E1,1.4533997E0,5.5412033E1,0E0,1.0343908E2,6.7583206E1,2.6824738E1,2.4094604E1,0E0,0E0,3.3057617E1,5.1532837E1,0E0,0E0,0E0,0E0,0E0,0E0,0E0,0E0,0E0,0E0,0E0,0E0,0E0,0E0,0E0,0E0,0E0,0E0,0E0,0E0,0E0,0E0,0E0,0E0,0E0,0E0],"parents":[2147483647,0,0,1,1,2,2,3,3,4,4,5,5,6,6,7,7,8,8,9,9,10,10,11,11,12,12,13,13,14,14,15,15,16,16,17,17,18,18,19,19,20,20,21,21,23,23,24,24,25,25,26,26,29,29,30,30],"right_children":[2,4,6,8,10,12,14,16,18,20,22,24,26,28,30,32,34,36,38,40,42,44,-1,46,48,50,52,-1,-1,54,56,-1,-1,-1,-1,-1,-1,-1,-1,-1,-1,-1,-1,-1,-1,-1,-1,-1,-1,-1,-1,-1,-1,-1,-1,-1,-1],"split_conditions":[5.87631E1,1.95E3,1.781E3,4.4E1,4.4E1,1.298E3,4E0,1.197E3,1.197E3,2.967E3,2.967E3,7.14E1,7.34467E1,1.969E3,2.4E1,1.971E1,2.041E1,9.98E2,1.496E3,4E0,3.62728E1,2.157E3,3.228051E-2,1.197E3,2.03E1,6.60579E1,1.461E3,3.3634163E-2,4.8014544E-2,1.31E2,2.23E2,-3.6165472E-2,-2.7688064E-2,-2.3479013E-2,-1.4538169E-2,-2.8209323E-2,-1.8533392E-2,-1.1017607E-2,-3.5577943E-3,1.42236175E-2,-5.63192E-3,1.5578094E-2,2.5678877E-2,2.2212066E-2,7.840971E-3,-1.1588583E-2,-4.599035E-4,9.604325E-3,8.380813E-4,4.8793675E-3,1.1857604E-2,2.8409163E-2,1.8566296E-2,3.165315E-2,1.9051537E-2,4.6886623E-2,2.9958097E-2],"split_indices":[12,8,8,12,12,8,0,8,8,8,8,12,12,8,0,6,6,8,8,0,12,8,0,8,6,12,8,0,0,1,1,0,0,0,0,0,0,0,0,0,0,0,0,0,0,0,0,0,0,0,0,0,0,0,0,0,0],"split_type":[0,0,0,0,0,0,0,0,0,0,0,0,0,0,0,0,0,0,0,0,0,0,0,0,0,0,0,0,0,0,0,0,0,0,0,0,0,0,0,0,0,0,0,0,0,0,0,0,0,0,0,0,0,0,0,0,0],"sum_hessian":[2.2183E4,1.0087E4,1.2096E4,8.154E3,1.933E3,1.0049E4,2.047E3,3.051E3,5.103E3,8.24E2,1.109E3,6.658E3,3.391E3,3.28E2,1.719E3,8.38E2,2.213E3,1.177E3,3.926E3,6.97E2,1.27E2,9.78E2,1.31E2,3.474E3,3.184E3,2.002E3,1.389E3,1.09E2,2.19E2,8.35E2,8.84E2,6.02E2,2.36E2,1.68E3,5.33E2,3.45E2,8.32E2,2.633E3,1.293E3,1.35E2,5.62E2,6.5E1,6.2E1,4.76E2,5.02E2,1.094E3,2.38E3,1.46E3,1.724E3,1.015E3,9.87E2,3.14E2,1.075E3,3.52E2,4.83E2,2.52E2,6.32E2],"tree_param":{"num_deleted":"0","num_feature":"13","num_nodes":"57","size_leaf_vector":"1"}},{"base_weights":[-5.323267E-4,6.1219996E-1,-1.8692414E-1,3.191023E-1,9.979823E-1,-5.3656113E-1,1.2192594E-1,5.2986115E-2,5.315121E-1,6.516142E-1,1.2990922E0,-8.979202E-1,-4.2265892E-1,-4.5926463E-2,4.1453505E-1,-2.3875183E-1,1.4571993E-1,3.0418038E-1,7.752729E-1,2.989968E-1,7.7340955E-1,1.1178089E0,1.370386E0,-1.0789593E0,-7.000205E-1,-6.337608E-1,-2.780767E-1,-5.529325E-1,1.1740884E-2,2.747519E-1,6.7088467E-1,-1.1980619E-2,-2.4181078E-3,-3.0937062E-3,9.275801E-3,5.0223684E-3,1.5055829E-2,2.9222213E-2,2.0176604E-2,4.6433285E-3,2.0018628E-2,2.0796357E-2,3.2030843E-2,3.1187316E-2,4.4163257E-2,4.478434E-2,3.7797E-2,-3.639328E-2,-2.9909065E-2,-2.7556768E-2,-1.7899705E-2,-2.158822E-2,-3.869832E-3,-1.0026638E-2,4.2815153E-3,-1.8263489E-2,-1.0310941E-2,-3.1710926E-3,4.7294307E-3,5.4411925E-3,1.6653381E-2,1.7325863E-2,2.7268864E-2],"categories":[],"categories_nodes":[],"categories_segments":[],"categories_sizes":[],"default_left":[0,0,0,0,0,0,0,0,0,0,0,0,0,0,0,0,0,0,0,0,0,0,0,0,0,0,0,0,0,0,0,0,0,0,0,0,0,0,0,0,0,0,0,0,0,0,0,0,0,0,0,0,0,0,0,0,0,0,0,0,0,0,0],"id":7,"left_children":[1,3,5,7,9,11,13,15,17,19,21,23,25,27,29,31,33,35,37,39,41,43,45,47,49,51,53,55,57,59,61,-1,-1,-1,-1,-1,-1,-1,-1,-1,-1,-1,-1,-1,-1,-1,-1,-1,-1,-1,-1,-1,-1,-1,-1,-1,-1,-1,-1,-1,-1,-1,-1],"loss_changes":[2.5510715E3,5.8751245E2,1.8497932E3,1.6762744E2,2.3011816E2,3.2877856E2,4.4694473E2,3.596636E1,9.025488E1,4.4152985E1,7.8112793E0,6.504846E1,1.8584998E2,1.6920175E2,1.1793762E2,7.992115E0,4.112348E1,2.2885284E1,1.291806E1,1.430257E1,1.473172E1,2.4650269E0,1.9174805E0,4.8858643E0,1.831253E1,1.0713019E2,8.623462E1,5.860138E0,8.9189865E1,5.5913956E1,2.3312927E1,0E0,0E0,0E0,0E0,0E0,0E0,0E0,0E0,0E0,0E0,0E0,0E0,0E0,0E0,0E0,0E0,0E0,0E0,0E0,0E0,0E0,0E0,0E0,0E0,0E0,0E0,0E0,0E0,0E0,0E0,0E0,0E0],"parents":[2147483647,0,0,1,1,2,2,3,3,4,4,5,5,6,6,7,7,8,8,9,9,10,10,11,11,12,12,13,13,14,14,15,15,16,16,17,17,18,18,19,19,20,20,21,21,22,22,23,23,24,24,25,25,26,26,27,27,28,28,29,29,30,30],"right_children":[2,4,6,8,10,12,14,16,18,20,22,24,26,28,30,32,34,36,38,40,42,44,46,48,50,52,54,56,58,60,62,-1,-1,-1,-1,-1,-1,-1,-1,-1,-1,-1,-1,-1,-1,-1,-1,-1,-1,-1,-1,-1,-1,-1,-1,-1,-1,-1,-1,-1,-1,-1,-1],"split_conditions":[1E0,1.898E3,5.77E1,6.80354E1,5.84E1,1.197E3,1.298E3,4.99256E1,1.298E3,4E1,6.5516E1,4.58172E1,4.4E1,9.98E2,7.37E1,1.498E3,1.242E3,7.9E1,1.461E3,2.956E3,2.755E3,2.835E3,2.1E1,3.37766E1,9.98E2,2.143E3,1.95E3,7.7E1,7.14E1,1.599E3,1.781E3,-1.1980619E-2,-2.4181078E-3,-3.0937062E-3,9.275801E-3,5.0223684E-3,1.5055829E-2,2.9222213E-2,2.0176604E-2,4.6433285E-3,2.0018628E-2,2.0796357E-2,3.2030843E-2,3.1187316E-2,4.4163257E-2,4.478434E-2,3.7797E-2,-3.639328E-2,-2.9909065E-2,-2.7556768E-2,-1.7899705E-2,-2.158822E-2,-3.869832E-3,-1.0026638E-2,4.2815153E-3,-1.8263489E-2,-1.0310941E-2,-3.1710926E-3,4.7294307E-3,5.4411925E-3,1.6653381E-2,1.7325863E-2,2.7268864E-2],"split_indices":[4,8,12,12,12,8,8,12,8,12,12,12,12,8,12,8,8,12,8,8,8,8,0,12,8,8,8,12,12,8,8,0,0,0,0,0,0,0,0,0,0,0,0,0,0,0,0,0,0,0,0,0,0,0,0,0,0,0,0,0,0,0,0],"split_type":[0,0,0,0,0,0,0,0,0,0,0,0,0,0,0,0,0,0,0,0,0,0,0,0,0,0,0,0,0,0,0,0,0,0,0,0,0,0,0,0,0,0,0,0,0,0,0,0,0,0,0,0,0,0,0,0,0,0,0,0,0,0,0],"sum_hessian":[2.2327E4,5.205E3,1.7122E4,2.963E3,2.242E3,8.029E3,9.093E3,1.318E3,1.645E3,1.05E3,1.192E3,1.916E3,6.113E3,5.781E3,3.312E3,3.16E2,1.002E3,8.57E2,7.88E2,2.74E2,7.76E2,3.6E2,8.32E2,9.89E2,9.27E2,2.478E3,3.635E3,5.86E2,5.195E3,2.15E3,1.162E3,1.53E2,1.63E2,3.98E2,6.04E2,5.12E2,3.45E2,2.54E2,5.34E2,2.02E2,7.2E1,6.23E2,1.53E2,3.11E2,4.9E1,3.65E2,4.67E2,3.49E2,6.4E2,2.85E2,6.42E2,2.116E3,3.62E2,3.208E3,4.27E2,4.55E2,1.31E2,2.879E3,2.316E3,1.619E3,5.31E2,8.47E2,3.15E2],"tree_param":{"num_deleted":"0","num_feature":"13","num_nodes":"63","size_leaf_vector":"1"}},{"base_weights":[2.293588E-3,2.7398795E-1,-4.4838053E-1,1.20963246E-1,9.5961386E-1,-5.9707355E-1,2.2284472E-1,-1.3318411E-2,3.7108E-1,1.317445E0,8.864595E-1,-4.0231475E-1,-8.6153466E-1,1.2379892E-1,8.005006E-1,1.2470649E-1,-1.8363313E-1,6.407738E-1,1.9320802E-1,4.4459734E-2,3.1342138E-2,7.205055E-1,1.04778E0,-6.487738E-1,-3.3451784E-1,-1.1046568E0,-7.5539625E-1,3.8253734E-1,-1.3470018E-1,8.8320297E-1,1.283052E-2,8.200812E-3,4.887506E-4,-1.2931802E-2,-2.181794E-3,2.6019303E-2,1.7133456E-2,8.050385E-3,-2.0749096E-4,2.9658837E-2,1.5942201E-2,4.2773888E-2,2.7090428E-2,-2.5391009E-2,-1.6525624E-2,-1.606465E-2,-8.59551E-3,-2.903193E-2,-3.6407076E-2,-2.529488E-2,-1.741466E-2,1.8773548E-2,4.290258E-3,1.0574295E-2,-7.438996E-3,2.9311508E-2,1.7997703E-2],"categories":[],"categories_nodes":[],"categories_segments":[],"categories_sizes":[],"default_left":[0,0,0,0,0,0,0,0,0,0,0,0,0,0,0,0,0,0,0,0,0,0,0,0,0,0,0,0,0,0,0,0,0,0,0,0,0,0,0,0,0,0,0,0,0,0,0,0,0,0,0,0,0,0,0,0,0],"id":8,"left_children":[1,3,5,7,9,11,13,15,17,19,21,23,25,27,29,31,33,35,37,-1,-1,39,41,43,45,47,49,51,53,55,-1,-1,-1,-1,-1,-1,-1,-1,-1,-1,-1,-1,-1,-1,-1,-1,-1,-1,-1,-1,-1,-1,-1,-1,-1,-1,-1],"loss_changes":[2.727478E3,1.457461E3,8.3684424E2,3.8179788E2,6.0519043E1,3.5159888E2,8.6642E1,1.7409477E2,1.8987372E2,1.1105164E1,5.2981567E1,6.508313E1,7.079028E1,8.760768E1,4.9562225E0,6.590944E1,9.081115E1,2.2392944E1,3.6098022E1,0E0,0E0,5.116754E1,5.1788574E1,1.4095551E1,2.9292145E1,7.131958E0,2.8838135E1,3.7657707E1,3.6690742E1,1.7747803E0,0E0,0E0,0E0,0E0,0E0,0E0,0E0,0E0,0E0,0E0,0E0,0E0,0E0,0E0,0E0,0E0,0E0,0E0,0E0,0E0,0E0,0E0,0E0,0E0,0E0,0E0,0E0],"parents":[2147483647,0,0,1,1,2,2,3,3,4,4,5,5,6,6,7,7,8,8,9,9,10,10,11,11,12,12,13,13,14,14,15,15,16,16,17,17,18,18,21,21,22,22,23,23,24,24,25,25,26,26,27,27,28,28,29,29],"right_children":[2,4,6,8,10,12,14,16,18,20,22,24,26,28,30,32,34,36,38,-1,-1,40,42,44,46,48,50,52,54,56,-1,-1,-1,-1,-1,-1,-1,-1,-1,-1,-1,-1,-1,-1,-1,-1,-1,-1,-1,-1,-1,-1,-1,-1,-1,-1,-1],"split_conditions":[1.2E1,1.781E3,1.95E3,1.298E3,4E0,1.5E1,2.967E3,9E0,8E0,1E1,2.02E2,1.197E3,1.194E3,1.4E1,1.6E1,2.03E1,1.197E3,1.461E3,1.1E1,4.4459734E-2,3.1342138E-2,1.31E2,2.23E2,9.98E2,7.4E1,1.7E1,1.496E3,2.157E3,4E0,3.3E1,1.283052E-2,8.200812E-3,4.887506E-4,-1.2931802E-2,-2.181794E-3,2.6019303E-2,1.7133456E-2,8.050385E-3,-2.0749096E-4,2.9658837E-2,1.5942201E-2,4.2773888E-2,2.7090428E-2,-2.5391009E-2,-1.6525624E-2,-1.606465E-2,-8.59551E-3,-2.903193E-2,-3.6407076E-2,-2.529488E-2,-1.741466E-2,1.8773548E-2,4.290258E-3,1.0574295E-2,-7.438996E-3,2.9311508E-2,1.7997703E-2],"split_indices":[2,8,8,8,0,2,8,2,2,2,1,8,8,2,2,6,8,8,2,0,0,1,1,8,1,2,8,8,0,0,0,0,0,0,0,0,0,0,0,0,0,0,0,0,0,0,0,0,0,0,0,0,0,0,0,0,0],"split_type":[0,0,0,0,0,0,0,0,0,0,0,0,0,0,0,0,0,0,0,0,0,0,0,0,0,0,0,0,0,0,0,0,0,0,0,0,0,0,0,0,0,0,0,0,0,0,0,0,0,0,0,0,0,0,0,0,0],"sum_hessian":[2.2265E4,1.3892E4,8.373E3,1.1362E4,2.53E3,6.855E3,1.518E3,7.396E3,3.966E3,4.15E2,2.115E3,3.955E3,2.9E3,1.301E3,2.17E2,4.086E3,3.31E3,1.571E3,2.395E3,2.45E2,1.7E2,1.056E3,1.059E3,8.44E2,3.111E3,8.67E2,2.033E3,6.49E2,6.52E2,1.72E2,4.5E1,1.72E3,2.366E3,1.02E3,2.29E3,3.56E2,1.215E3,1.74E3,6.55E2,4.28E2,6.28E2,2.81E2,7.78E2,2.67E2,5.77E2,5.9E2,2.521E3,4.06E2,4.61E2,1.341E3,6.92E2,3.18E2,3.31E2,1.21E2,5.31E2,1.2E2,5.2E1],"tree_param":{"num_deleted":"0","num_feature":"13","num_nodes":"57","size_leaf_vector":"1"}},{"base_weights":[-4.8033523E-4,2.633388E-1,-4.3558267E-1,1.1574923E-1,9.339212E-1,-5.83373E-1,2.3017152E-1,-1.3820489E-2,3.579915E-1,1.1502348E0,6.0228646E-1,-3.9056468E-1,-8.410534E-1,5.302472E-1,-1.2139681E-1,1.7246082E-1,-1.3399068E-1,6.2077785E-1,1.8318783E-1,9.308068E-1,1.2489005E0,7.177034E-1,2.9460716E-1,-6.367672E-1,-3.2306418E-1,-1.063198E0,-7.334322E-1,6.16383E-1,6.1141312E-2,-3.438355E-2,-5.39363E-1,9.54654E-3,1.2280942E-3,-1.1380847E-2,-6.517488E-4,2.3652842E-2,1.5548556E-2,7.8027425E-3,-6.1089627E-4,2.582901E-2,3.790076E-2,3.9154645E-2,3.182015E-2,1.8375417E-2,2.645543E-2,6.9672265E-3,1.7876374E-2,-2.4596721E-2,-1.6222091E-2,-1.5785983E-2,-8.237394E-3,-2.8186955E-2,-3.5190266E-2,-3.1743057E-2,-2.054642E-2,1.5884496E-2,2.8245255E-2,-3.010427E-3,1.1122284E-2,-3.8046495E-3,7.910118E-3,-1.1470331E-2,-2.1817062E-2],"categories":[],"categories_nodes":[],"categories_segments":[],"categories_sizes":[],"default_left":[0,0,0,0,0,0,0,0,0,0,0,0,0,0,0,0,0,0,0,0,0,0,0,0,0,0,0,0,0,0,0,0,0,0,0,0,0,0,0,0,0,0,0,0,0,0,0,0,0,0,0,0,0,0,0,0,0,0,0,0,0,0,0],"id":9,"left_children":[1,3,5,7,9,11,13,15,17,19,21,23,25,27,29,31,33,35,37,39,41,43,45,47,49,51,53,55,57,59,61,-1,-1,-1,-1,-1,-1,-1,-1,-1,-1,-1,-1,-1,-1,-1,-1,-1,-1,-1,-1,-1,-1,-1,-1,-1,-1,-1,-1,-1,-1,-1,-1],"loss_changes":[2.5602385E3,1.3736714E3,8.2903406E2,3.5740015E2,1.7616602E2,3.4072266E2,1.6204889E2,1.6628282E2,1.8170547E2,2.6879028E1,3.44187E1,6.463226E1,6.6508545E1,3.3268417E1,2.5728981E1,5.577887E1,1.2433232E2,2.515741E1,3.743908E1,5.8954163E0,3.9528809E0,9.782745E0,4.5878315E0,1.2643036E1,2.991748E1,7.386841E0,2.7903076E1,1.725653E1,6.88564E0,1.6505272E1,2.208664E0,0E0,0E0,0E0,0E0,0E0,0E0,0E0,0E0,0E0,0E0,0E0,0E0,0E0,0E0,0E0,0E0,0E0,0E0,0E0,0E0,0E0,0E0,0E0,0E0,0E0,0E0,0E0,0E0,0E0,0E0,0E0,0E0],"parents":[2147483647,0,0,1,1,2,2,3,3,4,4,5,5,6,6,7,7,8,8,9,9,10,10,11,11,12,12,13,13,14,14,15,15,16,16,17,17,18,18,19,19,20,20,21,21,22,22,23,23,24,24,25,25,26,26,27,27,28,28,29,29,30,30],"right_children":[2,4,6,8,10,12,14,16,18,20,22,24,26,28,30,32,34,36,38,40,42,44,46,48,50,52,54,56,58,60,62,-1,-1,-1,-1,-1,-1,-1,-1,-1,-1,-1,-1,-1,-1,-1,-1,-1,-1,-1,-1,-1,-1,-1,-1,-1,-1,-1,-1,-1,-1,-1,-1],"split_conditions":[1.2E1,1.781E3,1.95E3,1.299E3,1E0,1.5E1,1E0,8E0,8E0,6.3E1,1E1,1.197E3,1.197E3,1.6E1,1.7E1,2.03E1,1.197E3,1E0,1.1E1,2.835E3,2.9E1,7.57E1,3E2,9.98E2,7.4E1,1.7E1,1.1E1,2.956E3,2.498E3,3.7E1,1.32E1,9.54654E-3,1.2280942E-3,-1.1380847E-2,-6.517488E-4,2.3652842E-2,1.5548556E-2,7.8027425E-3,-6.1089627E-4,2.582901E-2,3.790076E-2,3.9154645E-2,3.182015E-2,1.8375417E-2,2.645543E-2,6.9672265E-3,1.7876374E-2,-2.4596721E-2,-1.6222091E-2,-1.5785983E-2,-8.237394E-3,-2.8186955E-2,-3.5190266E-2,-3.1743057E-2,-2.054642E-2,1.5884496E-2,2.8245255E-2,-3.010427E-3,1.1122284E-2,-3.8046495E-3,7.910118E-3,-1.1470331E-2,-2.1817062E-2],"split_indices":[2,8,8,8,4,2,4,2,2,12,2,8,8,2,2,6,8,4,2,8,0,12,1,8,1,2,0,8,8,0,6,0,0,0,0,0,0,0,0,0,0,0,0,0,0,0,0,0,0,0,0,0,0,0,0,0,0,0,0,0,0,0,0],"split_type":[0,0,0,0,0,0,0,0,0,0,0,0,0,0,0,0,0,0,0,0,0,0,0,0,0,0,0,0,0,0,0,0,0,0,0,0,0,0,0,0,0,0,0,0,0,0,0,0,0,0,0,0,0,0,0,0,0,0,0,0,0,0,0],"sum_hessian":[2.2294E4,1.388E4,8.414E3,1.1381E4,2.499E3,6.886E3,1.528E3,7.418E3,3.963E3,1.505E3,9.94E2,3.946E3,2.94E3,8.23E2,7.05E2,2.908E3,4.51E3,1.578E3,2.385E3,4.83E2,1.022E3,7.18E2,2.76E2,8.4E2,3.106E3,9.45E2,1.995E3,6.94E2,1.29E2,5.88E2,1.17E2,1.376E3,1.532E3,1.412E3,3.098E3,5.86E2,9.92E2,1.73E3,6.55E2,4.14E2,6.9E1,7.64E2,2.58E2,4.52E2,2.66E2,2.36E2,4E1,2.76E2,5.64E2,5.89E2,2.517E3,4.67E2,4.78E2,2.46E2,1.749E3,5.58E2,1.36E2,8.7E1,4.2E1,4.51E2,1.37E2,7.2E1,4.5E1],"tree_param":{"num_deleted":"0","num_feature":"13","num_nodes":"63","size_leaf_vector":"1"}},{"base_weights":[-4.0116475E-4,2.5535816E-1,-4.2011395E-1,1.1006098E-1,9.0880406E-1,-5.617216E-1,2.1858022E-1,-1.6319657E-2,3.453077E-1,7.2917205E-1,1.0483098E0,-3.7875944E-1,-8.1008583E-1,5.8916736E-1,8.814485E-2,1.15825295E-1,-1.781239E-1,5.392841E-1,1.21289E-1,6.7386156E-1,3.8114145E-2,4.1663628E-2,9.730509E-1,-6.1521053E-1,-3.1319526E-1,-1.0311141E0,-7.125954E-1,6.627414E-1,3.7104726E-1,-4.5488123E-3,7.463654E-1,7.6850196E-3,4.803359E-4,-1.2387339E-2,-2.0779744E-3,1.8072816E-2,9.114329E-3,1.6764693E-3,9.5326435E-3,2.4922991E-2,1.45468125E-2,2.4706563E-2,3.3210527E-2,-2.4206016E-2,-1.5639255E-2,-1.1457434E-2,-5.1473966E-3,-2.7014455E-2,-3.421362E-2,-3.045399E-2,-1.988423E-2,2.3047293E-2,1.7336132E-2,7.958884E-3,1.4970646E-2,5.300848E-3,-9.434917E-3,1.3124569E-2,2.6761256E-2],"categories":[],"categories_nodes":[],"categories_segments":[],"categories_sizes":[],"default_left":[0,0,0,0,0,0,0,0,0,0,0,0,0,0,0,0,0,0,0,0,0,0,0,0,0,0,0,0,0,0,0,0,0,0,0,0,0,0,0,0,0,0,0,0,0,0,0,0,0,0,0,0,0,0,0,0,0,0,0],"id":10,"left_children":[1,3,5,7,9,11,13,15,17,19,21,23,25,27,29,31,33,35,37,39,-1,-1,41,43,45,47,49,51,53,55,57,-1,-1,-1,-1,-1,-1,-1,-1,-1,-1,-1,-1,-1,-1,-1,-1,-1,-1,-1,-1,-1,-1,-1,-1,-1,-1,-1,-1],"loss_changes":[2.3939104E3,1.3151367E3,7.643229E2,3.3723297E2,5.932837E1,3.1260132E2,7.398699E1,1.5796362E2,1.71926E2,2.9191772E1,2.9296143E1,6.0892456E1,5.9419067E1,5.1736145E0,6.969367E1,5.695049E1,8.47368E1,3.0650696E1,2.363264E1,2.8377045E1,0E0,0E0,1.8854126E1,1.3392273E1,3.0171478E1,7.5059204E0,2.7484009E1,3.9482117E-1,8.538008E-1,5.679112E1,4.3932266E0,0E0,0E0,0E0,0E0,0E0,0E0,0E0,0E0,0E0,0E0,0E0,0E0,0E0,0E0,0E0,0E0,0E0,0E0,0E0,0E0,0E0,0E0,0E0,0E0,0E0,0E0,0E0,0E0],"parents":[2147483647,0,0,1,1,2,2,3,3,4,4,5,5,6,6,7,7,8,8,9,9,10,10,11,11,12,12,13,13,14,14,15,15,16,16,17,17,18,18,19,19,22,22,23,23,24,24,25,25,26,26,27,27,28,28,29,29,30,30],"right_children":[2,4,6,8,10,12,14,16,18,20,22,24,26,28,30,32,34,36,38,40,-1,-1,42,44,46,48,50,52,54,56,58,-1,-1,-1,-1,-1,-1,-1,-1,-1,-1,-1,-1,-1,-1,-1,-1,-1,-1,-1,-1,-1,-1,-1,-1,-1,-1,-1,-1],"split_conditions":[1.2E1,1.798E3,1.95E3,1.299E3,6.62E1,1.5E1,4E0,9E0,9E0,2.967E3,7.1E1,1.197E3,1.194E3,1.5E1,2.967E3,2.03E1,1.197E3,2.146E1,1.582E3,2.147E3,3.8114145E-2,4.1663628E-2,2.2E1,9.98E2,1.497E3,1.7E1,1.1E1,1.3E1,2.755E3,1.5E1,3.62728E1,7.6850196E-3,4.803359E-4,-1.2387339E-2,-2.0779744E-3,1.8072816E-2,9.114329E-3,1.6764693E-3,9.5326435E-3,2.4922991E-2,1.45468125E-2,2.4706563E-2,3.3210527E-2,-2.4206016E-2,-1.5639255E-2,-1.1457434E-2,-5.1473966E-3,-2.7014455E-2,-3.421362E-2,-3.045399E-2,-1.988423E-2,2.3047293E-2,1.7336132E-2,7.958884E-3,1.4970646E-2,5.300848E-3,-9.434917E-3,1.3124569E-2,2.6761256E-2],"split_indices":[2,8,8,8,12,2,0,2,2,8,1,8,8,2,8,6,8,6,8,8,0,0,0,8,8,2,0,2,8,2,12,0,0,0,0,0,0,0,0,0,0,0,0,0,0,0,0,0,0,0,0,0,0,0,0,0,0,0,0],"split_type":[0,0,0,0,0,0,0,0,0,0,0,0,0,0,0,0,0,0,0,0,0,0,0,0,0,0,0,0,0,0,0,0,0,0,0,0,0,0,0,0,0,0,0,0,0,0,0,0,0,0,0,0,0,0,0,0,0,0,0],"sum_hessian":[2.2291E4,1.3852E4,8.439E3,1.1337E4,2.515E3,6.908E3,1.531E3,7.378E3,3.959E3,1.113E3,1.402E3,3.985E3,2.923E3,3.94E2,1.137E3,4.062E3,3.316E3,2.118E3,1.841E3,1.02E3,9.3E1,2.38E2,1.164E3,8.56E2,3.129E3,8.8E2,2.043E3,2.87E2,1.07E2,1.001E3,1.36E2,1.685E3,2.377E3,1.046E3,2.27E3,1.664E3,4.54E2,1.386E3,4.55E2,5.48E2,4.72E2,5.67E2,5.97E2,2.69E2,5.87E2,2.101E3,1.028E3,4.22E2,4.58E2,2.75E2,1.768E3,1.1E2,1.77E2,6.7E1,4E1,6.33E2,3.68E2,5E1,8.6E1],"tree_param":{"num_deleted":"0","num_feature":"13","num_nodes":"59","size_leaf_vector":"1"}},{"base_weights":[-2.6573555E-4,2.4739839E-1,-4.1045377E-1,1.07150376E-1,8.7949646E-1,-5.475985E-1,2.0696323E-1,-4.449042E-2,2.997223E-1,1.086979E0,5.6185174E-1,-4.111565E-1,-8.642848E-1,5.000074E-1,-1.2880379E-1,2.1939161E-1,-1.5649782E-1,1.05005816E-1,5.049085E-1,1.2368683E0,9.301722E-1,7.2511834E-1,3.6340153E-1,-4.848747E-1,-1.9085823E-1,-3.2012507E-2,-7.6262206E-1,5.8215326E-1,6.284902E-2,-1.7608814E-2,-4.434845E-1,1.0893222E-2,1.8517217E-3,-1.7461486E-2,-3.0252142E-3,1.6682443E-3,9.911269E-3,1.12838615E-2,1.8732619E-2,4.294854E-2,3.516093E-2,2.6073832E-2,3.9153934E-2,2.2796916E-2,1.0328735E-2,8.750627E-3,2.150605E-2,-2.5070524E-2,-1.3091825E-2,1.6765206E-3,-7.271926E-3,-1.15109505E-2,-2.3789288E-2,1.49452705E-2,2.6228063E-2,-3.1919586E-3,9.333269E-3,-3.1248278E-3,8.581718E-3,-7.2849374E-3,-1.9950518E-2],"categories":[],"categories_nodes":[],"categories_segments":[],"categories_sizes":[],"default_left":[0,0,0,0,0,0,0,0,0,0,0,0,0,0,0,0,0,0,0,0,0,0,0,0,0,0,0,0,0,0,0,0,0,0,0,0,0,0,0,0,0,0,0,0,0,0,0,0,0,0,0,0,0,0,0,0,0,0,0,0,0],"id":11,"left_children":[1,3,5,7,9,11,13,15,17,19,21,23,25,27,29,31,33,35,37,39,41,43,45,47,49,-1,51,53,55,57,59,-1,-1,-1,-1,-1,-1,-1,-1,-1,-1,-1,-1,-1,-1,-1,-1,-1,-1,-1,-1,-1,-1,-1,-1,-1,-1,-1,-1,-1,-1],"loss_changes":[2.2661426E3,1.2325686E3,7.116715E2,3.3264557E2,1.6335828E2,2.9520068E2,1.508657E2,1.8862546E2,2.002197E2,3.0020142E1,3.1341919E1,7.770032E1,3.8505493E1,2.9192047E1,2.5049435E1,4.2985977E1,1.0579202E2,2.8641756E1,3.6409912E1,1.244873E0,1.1815674E1,5.9499817E0,1.0741547E1,5.9454346E1,1.5518795E1,0E0,1.4500916E1,1.4699722E1,5.837859E0,1.4210356E1,7.5049553E0,0E0,0E0,0E0,0E0,0E0,0E0,0E0,0E0,0E0,0E0,0E0,0E0,0E0,0E0,0E0,0E0,0E0,0E0,0E0,0E0,0E0,0E0,0E0,0E0,0E0,0E0,0E0,0E0,0E0,0E0],"parents":[2147483647,0,0,1,1,2,2,3,3,4,4,5,5,6,6,7,7,8,8,9,9,10,10,11,11,12,12,13,13,14,14,15,15,16,16,17,17,18,18,19,19,20,20,21,21,22,22,23,23,24,24,26,26,27,27,28,28,29,29,30,30],"right_children":[2,4,6,8,10,12,14,16,18,20,22,24,26,28,30,32,34,36,38,40,42,44,46,48,50,-1,52,54,56,58,60,-1,-1,-1,-1,-1,-1,-1,-1,-1,-1,-1,-1,-1,-1,-1,-1,-1,-1,-1,-1,-1,-1,-1,-1,-1,-1,-1,-1,-1,-1],"split_conditions":[1.2E1,1.781E3,1.95E3,1.242E3,1E0,1.6E1,1E0,7E0,6.78E1,9E0,9E0,1.497E3,1.194E3,1.6E1,1.6E1,2.03E1,9.98E2,1.582E3,7.52258E1,3.1E1,2.835E3,2.487E3,3E2,6.7E1,1E0,-3.2012507E-2,1E0,2.956E3,2.393E3,2.88E2,1.29E1,1.0893222E-2,1.8517217E-3,-1.7461486E-2,-3.0252142E-3,1.6682443E-3,9.911269E-3,1.12838615E-2,1.8732619E-2,4.294854E-2,3.516093E-2,2.6073832E-2,3.9153934E-2,2.2796916E-2,1.0328735E-2,8.750627E-3,2.150605E-2,-2.5070524E-2,-1.3091825E-2,1.6765206E-3,-7.271926E-3,-1.15109505E-2,-2.3789288E-2,1.49452705E-2,2.6228063E-2,-3.1919586E-3,9.333269E-3,-3.1248278E-3,8.581718E-3,-7.2849374E-3,-1.9950518E-2],"split_indices":[2,8,8,8,4,2,4,2,12,2,2,8,8,2,2,6,8,8,12,1,8,8,1,1,4,0,4,8,8,1,6,0,0,0,0,0,0,0,0,0,0,0,0,0,0,0,0,0,0,0,0,0,0,0,0,0,0,0,0,0,0],"split_type":[0,0,0,0,0,0,0,0,0,0,0,0,0,0,0,0,0,0,0,0,0,0,0,0,0,0,0,0,0,0,0,0,0,0,0,0,0,0,0,0,0,0,0,0,0,0,0,0,0,0,0,0,0,0,0,0,0,0,0,0,0],"sum_hessian":[2.2297E4,1.3904E4,8.393E3,1.1384E4,2.52E3,6.868E3,1.525E3,6.371E3,5.013E3,1.517E3,1.003E3,4.808E3,2.06E3,8.13E2,7.12E2,1.897E3,4.474E3,2.576E3,2.437E3,7.58E2,7.59E2,5.43E2,4.6E2,3.598E3,1.21E3,6.72E2,1.388E3,6.83E2,1.3E2,5.3E2,1.82E2,9.89E2,9.08E2,5.12E2,3.962E3,2.118E3,4.58E2,1.183E3,1.254E3,1.63E2,5.95E2,6.67E2,9.2E1,4.93E2,5E1,3.9E2,7E1,4.27E2,3.171E3,2.09E2,1.001E3,1.08E2,1.28E3,5.41E2,1.42E2,7.9E1,5.1E1,4.15E2,1.15E2,1.01E2,8.1E1],"tree_param":{"num_deleted":"0","num_feature":"13","num_nodes":"61","size_leaf_vector":"1"}},{"base_weights":[3.32637E-4,1.9679464E-1,-4.934024E-1,6.124766E-1,4.2095926E-2,1.8909492E-1,-6.052227E-1,7.2402275E-1,1.2640187E-1,1.8407527E-1,-1.5616393E-1,4.1889414E-1,-1.1076064E-1,-4.6227103E-1,-8.274467E-1,9.39962E-1,5.307317E-1,3.7603933E-1,-2.9760532E-2,4.5467836E-1,9.178946E-2,5.32267E-2,-2.19366E-1,2.1060351E-3,4.7083867E-1,1.6554715E-1,-2.4072324E-1,-7.769931E-1,-4.16859E-1,-8.571211E-1,-3.5651985E-1,2.2640886E-2,3.2092515E-2,2.2269469E-2,1.11698825E-2,2.558952E-2,8.6014075E-3,4.78461E-3,-4.23938E-3,1.8676363E-2,1.0063089E-2,-1.565724E-2,3.3269292E-3,5.400831E-3,-1.1546395E-3,-2.2060478E-2,-5.912103E-3,1.5281886E-2,2.7533986E-3,1.3476959E-2,-1.855213E-3,-3.377277E-3,-1.2831971E-2,-2.6223905E-2,-1.9620575E-2,-3.9638877E-3,-1.3749343E-2,-1.9338088E-2,-2.6927024E-2,-3.9967317E-3,-1.5334718E-2],"categories":[],"categories_nodes":[],"categories_segments":[],"categories_sizes":[],"default_left":[0,0,0,0,0,0,0,0,0,0,0,0,0,0,0,0,0,0,0,0,0,0,0,0,0,0,0,0,0,0,0,0,0,0,0,0,0,0,0,0,0,0,0,0,0,0,0,0,0,0,0,0,0,0,0,0,0,0,0,0,0],"id":12,"left_children":[1,3,5,7,9,11,13,15,17,19,21,23,25,27,29,31,33,35,37,39,41,43,45,-1,47,49,51,53,55,57,59,-1,-1,-1,-1,-1,-1,-1,-1,-1,-1,-1,-1,-1,-1,-1,-1,-1,-1,-1,-1,-1,-1,-1,-1,-1,-1,-1,-1,-1,-1],"loss_changes":[2.1669844E3,1.0275367E3,4.8587244E2,2.3453076E2,3.2813358E2,6.2178993E1,1.7169568E2,1.4459436E2,3.1827904E1,1.6940674E2,6.4441414E1,9.072197E0,1.4347669E1,4.6073486E1,2.8279785E1,3.5830444E1,6.1325317E1,1.2154667E1,1.0794835E1,3.3504944E1,5.97552E1,1.3199253E1,4.2278534E1,0E0,6.2409363E0,8.46023E0,6.2297144E0,2.098816E0,3.4243805E1,1.4324097E1,4.3210354E0,0E0,0E0,0E0,0E0,0E0,0E0,0E0,0E0,0E0,0E0,0E0,0E0,0E0,0E0,0E0,0E0,0E0,0E0,0E0,0E0,0E0,0E0,0E0,0E0,0E0,0E0,0E0,0E0,0E0,0E0],"parents":[2147483647,0,0,1,1,2,2,3,3,4,4,5,5,6,6,7,7,8,8,9,9,10,10,11,11,12,12,13,13,14,14,15,15,16,16,17,17,18,18,19,19,20,20,21,21,22,22,24,24,25,25,26,26,27,27,28,28,29,29,30,30],"right_children":[2,4,6,8,10,12,14,16,18,20,22,24,26,28,30,32,34,36,38,40,42,44,46,-1,48,50,52,54,56,58,60,-1,-1,-1,-1,-1,-1,-1,-1,-1,-1,-1,-1,-1,-1,-1,-1,-1,-1,-1,-1,-1,-1,-1,-1,-1,-1,-1,-1,-1,-1],"split_conditions":[1.3E1,1E0,1E0,2.07E1,1E1,2E0,1.6E1,3E0,2E0,1.771E1,1.784E1,3.12215E1,1.24E1,1.2E1,3.7E1,6.3E1,1.693E1,1.3E1,2.156E1,2E0,9E0,2E0,7E0,2.1060351E-3,1.897E1,1.6E1,1.6E1,4.4E1,1.515E1,4.9E1,1.3E1,2.2640886E-2,3.2092515E-2,2.2269469E-2,1.11698825E-2,2.558952E-2,8.6014075E-3,4.78461E-3,-4.23938E-3,1.8676363E-2,1.0063089E-2,-1.565724E-2,3.3269292E-3,5.400831E-3,-1.1546395E-3,-2.2060478E-2,-5.912103E-3,1.5281886E-2,2.7533986E-3,1.3476959E-2,-1.855213E-3,-3.377277E-3,-1.2831971E-2,-2.6223905E-2,-1.9620575E-2,-3.9638877E-3,-1.3749343E-2,-1.9338088E-2,-2.6927024E-2,-3.9967317E-3,-1.5334718E-2],"split_indices":[2,4,4,6,2,3,2,3,3,6,6,12,6,0,0,12,6,0,6,3,0,3,0,0,6,2,2,1,6,9,6,0,0,0,0,0,0,0,0,0,0,0,0,0,0,0,0,0,0,0,0,0,0,0,0,0,0,0,0,0,0],"split_type":[0,0,0,0,0,0,0,0,0,0,0,0,0,0,0,0,0,0,0,0,0,0,0,0,0,0,0,0,0,0,0,0,0,0,0,0,0,0,0,0,0,0,0,0,0,0,0,0,0,0,0,0,0,0,0,0,0,0,0,0,0],"sum_hessian":[2.233E4,1.5976E4,6.354E3,4.329E3,1.1647E4,8.94E2,5.46E3,3.519E3,8.1E2,6.787E3,4.86E3,5.05E2,3.89E2,3.332E3,2.128E3,1.653E3,1.866E3,3.09E2,5.01E2,1.721E3,5.066E3,1.127E3,3.733E3,6.7E1,4.38E2,1.24E2,2.65E2,4.1E2,2.922E3,1.998E3,1.3E2,6.95E2,9.58E2,7.91E2,1.075E3,4.2E1,2.67E2,1.85E2,3.16E2,7.06E2,1.015E3,1.49E2,4.917E3,4.71E2,6.56E2,1.48E2,3.585E3,3.96E2,4.2E1,5.3E1,7.1E1,1.62E2,1.03E2,2.12E2,1.98E2,3.74E2,2.548E3,3.33E2,1.665E3,5.7E1,7.3E1],"tree_param":{"num_deleted":"0","num_feature":"13","num_nodes":"61","size_leaf_vector":"1"}},{"base_weights":[-1.9863045E-3,2.3385929E-1,-3.8904688E-1,1.01107396E-1,8.3484447E-1,-5.1710725E-1,1.9931577E-1,-4.1065536E-2,2.8450224E-1,1.0257907E0,5.329149E-1,-3.47489E-1,-7.460258E-1,4.8419887E-1,-1.21777155E-1,2.0675041E-1,-1.4769484E-1,9.880123E-2,4.7869837E-1,1.1605538E0,8.8823503E-1,3.4335464E-1,6.9284713E-1,-5.737076E-1,-2.8522426E-1,-8.2367545E-1,-4.997335E-1,6.0802674E-1,2.0011231E-1,2.7014028E-2,-3.3378324E-1,1.0474241E-2,1.4972881E-3,-1.6770722E-2,-2.836725E-3,5.164867E-3,-1.4239718E-3,1.0985695E-2,1.8011054E-2,4.1096214E-2,3.2647546E-2,2.4905695E-2,3.703463E-2,8.45144E-3,2.0086613E-2,2.4031287E-2,1.7349089E-2,-2.2456072E-2,-1.4521587E-2,-1.04108425E-2,-4.61889E-3,-2.179636E-2,-2.8817995E-2,-9.808601E-3,-2.0839546E-2,1.5658615E-2,2.7951686E-2,1.5310665E-3,1.717079E-2,-1.3253585E-3,8.786435E-3,1.6069419E-3,-1.24276625E-2],"categories":[],"categories_nodes":[],"categories_segments":[],"categories_sizes":[],"default_left":[0,0,0,0,0,0,0,0,0,0,0,0,0,0,0,0,0,0,0,0,0,0,0,0,0,0,0,0,0,0,0,0,0,0,0,0,0,0,0,0,0,0,0,0,0,0,0,0,0,0,0,0,0,0,0,0,0,0,0,0,0,0,0],"id":13,"left_children":[1,3,5,7,9,11,13,15,17,19,21,23,25,27,29,31,33,35,37,39,41,43,45,47,49,51,53,55,57,59,61,-1,-1,-1,-1,-1,-1,-1,-1,-1,-1,-1,-1,-1,-1,-1,-1,-1,-1,-1,-1,-1,-1,-1,-1,-1,-1,-1,-1,-1,-1,-1,-1],"loss_changes":[2.0264681E3,1.1000898E3,6.33798E2,2.9479645E2,1.4110925E2,2.667777E2,1.380546E2,1.6852922E2,1.7780368E2,2.3078247E1,2.8430054E1,5.517148E1,5.4053223E1,2.7498718E1,2.2504866E1,4.276935E1,9.7173965E1,2.7188492E1,3.1918457E1,3.9423218E0,1.0451843E1,8.245739E0,4.1901855E0,1.1558411E1,2.510048E1,2.6074951E1,2.2977829E1,1.3003662E1,1.3727304E1,8.07115E0,9.27515E0,0E0,0E0,0E0,0E0,0E0,0E0,0E0,0E0,0E0,0E0,0E0,0E0,0E0,0E0,0E0,0E0,0E0,0E0,0E0,0E0,0E0,0E0,0E0,0E0,0E0,0E0,0E0,0E0,0E0,0E0,0E0,0E0],"parents":[2147483647,0,0,1,1,2,2,3,3,4,4,5,5,6,6,7,7,8,8,9,9,10,10,11,11,12,12,13,13,14,14,15,15,16,16,17,17,18,18,19,19,20,20,21,21,22,22,23,23,24,24,25,25,26,26,27,27,28,28,29,29,30,30],"right_children":[2,4,6,8,10,12,14,16,18,20,22,24,26,28,30,32,34,36,38,40,42,44,46,48,50,52,54,56,58,60,62,-1,-1,-1,-1,-1,-1,-1,-1,-1,-1,-1,-1,-1,-1,-1,-1,-1,-1,-1,-1,-1,-1,-1,-1,-1,-1,-1,-1,-1,-1,-1,-1],"split_conditions":[1.2E1,1.798E3,1.95E3,1.242E3,1E0,1.5E1,1E0,7E0,6.78E1,9E0,6.69574E1,1.197E3,1.496E3,1.5E1,1.5E1,2.03E1,9.98E2,1.1E1,7.59E1,4E0,2.835E3,3E2,7E0,9.98E2,1.497E3,1.7E1,1.7E1,2.956E3,2.956E3,3.7E1,1.167E1,1.0474241E-2,1.4972881E-3,-1.6770722E-2,-2.836725E-3,5.164867E-3,-1.4239718E-3,1.0985695E-2,1.8011054E-2,4.1096214E-2,3.2647546E-2,2.4905695E-2,3.703463E-2,8.45144E-3,2.0086613E-2,2.4031287E-2,1.7349089E-2,-2.2456072E-2,-1.4521587E-2,-1.04108425E-2,-4.61889E-3,-2.179636E-2,-2.8817995E-2,-9.808601E-3,-2.0839546E-2,1.5658615E-2,2.7951686E-2,1.5310665E-3,1.717079E-2,-1.3253585E-3,8.786435E-3,1.6069419E-3,-1.24276625E-2],"split_indices":[2,8,8,8,4,2,4,2,12,2,12,8,8,2,2,6,8,2,12,0,8,1,2,8,8,2,2,8,8,0,6,0,0,0,0,0,0,0,0,0,0,0,0,0,0,0,0,0,0,0,0,0,0,0,0,0,0,0,0,0,0,0,0],"split_type":[0,0,0,0,0,0,0,0,0,0,0,0,0,0,0,0,0,0,0,0,0,0,0,0,0,0,0,0,0,0,0,0,0,0,0,0,0,0,0,0,0,0,0,0,0,0,0,0,0,0,0,0,0,0,0,0,0,0,0,0,0,0,0],"sum_hessian":[2.2189E4,1.3789E4,8.4E3,1.1299E4,2.49E3,6.899E3,1.501E3,6.367E3,4.932E3,1.518E3,9.72E2,3.97E3,2.929E3,7.94E2,7.07E2,1.914E3,4.453E3,2.525E3,2.407E3,7.48E2,7.7E2,4.52E2,5.2E2,8.48E2,3.122E3,2.218E3,7.11E2,5.49E2,2.45E2,4.18E2,2.89E2,1E3,9.14E2,5.04E2,3.949E3,1.681E3,8.44E2,1.261E3,1.146E3,1.69E2,5.79E2,6.74E2,9.6E1,3.88E2,6.4E1,2.52E2,2.68E2,2.75E2,5.73E2,2.117E3,1.005E3,1.316E3,9.02E2,3.84E2,3.27E2,4.44E2,1.05E2,1.79E2,6.6E1,3.33E2,8.5E1,5E1,2.39E2],"tree_param":{"num_deleted":"0","num_feature":"13","num_nodes":"63","size_leaf_vector":"1"}},{"base_weights":[-4.1724845E-5,1.8401061E-1,-4.627413E-1,5.5586725E-2,7.599663E-1,-6.0240304E-1,5.3879917E-2,2.347379E-1,-1.0837793E-1,5.4934484E-1,9.131176E-1,-4.6835935E-1,-8.154725E-1,2.2340876E-1,-2.7156785E-1,8.233449E-2,4.6199015E-1,-3.98252E-1,-3.4167744E-2,4.8295596E-1,3.0003332E-2,3.6113698E-2,8.450598E-1,-7.7217644E-1,-4.2551878E-1,-9.8424625E-1,-7.200924E-1,1.4717358E-1,2.0707663E-2,-3.5512984E-1,1.1157995E-2,-5.4622244E-4,6.7042494E-3,1.793044E-2,1.086678E-2,-1.796479E-2,-8.926526E-3,2.0072805E-3,-4.2370195E-3,1.9964483E-2,8.190122E-3,2.0641817E-2,2.9178413E-2,-2.5021927E-2,-8.632104E-3,-1.8259384E-2,-1.1048267E-2,-2.2976462E-2,-3.0484674E-2,-2.8888715E-2,-2.0285424E-2,1.3950916E-2,1.0609624E-3,-7.3808054E-3,-1.5851498E-2],"categories":[],"categories_nodes":[],"categories_segments":[],"categories_sizes":[],"default_left":[0,0,0,0,0,0,0,0,0,0,0,0,0,0,0,0,0,0,0,0,0,0,0,0,0,0,0,0,0,0,0,0,0,0,0,0,0,0,0,0,0,0,0,0,0,0,0,0,0,0,0,0,0,0,0],"id":14,"left_children":[1,3,5,7,9,11,13,15,17,19,21,23,25,27,29,31,33,35,37,39,-1,-1,41,43,45,47,49,51,-1,53,-1,-1,-1,-1,-1,-1,-1,-1,-1,-1,-1,-1,-1,-1,-1,-1,-1,-1,-1,-1,-1,-1,-1,-1,-1],"loss_changes":[1.8975559E3,1.1788882E3,4.5767957E2,3.8317023E2,9.123071E1,1.4066492E2,7.50073E1,2.156836E2,1.4646906E2,3.4573334E1,2.8049194E1,3.8393433E1,2.737976E1,3.1274063E1,2.5718277E1,5.3050373E1,3.2773926E1,2.7144012E1,5.8799583E1,4.0747482E1,0E0,0E0,2.4169495E1,1.0012894E1,2.7256165E1,8.468628E-1,1.003241E1,2.7424957E1,0E0,7.194542E0,0E0,0E0,0E0,0E0,0E0,0E0,0E0,0E0,0E0,0E0,0E0,0E0,0E0,0E0,0E0,0E0,0E0,0E0,0E0,0E0,0E0,0E0,0E0,0E0,0E0],"parents":[2147483647,0,0,1,1,2,2,3,3,4,4,5,5,6,6,7,7,8,8,9,9,10,10,11,11,12,12,13,13,14,14,15,15,16,16,17,17,18,18,19,19,22,22,23,23,24,24,25,25,26,26,27,27,29,29],"right_children":[2,4,6,8,10,12,14,16,18,20,22,24,26,28,30,32,34,36,38,40,-1,-1,42,44,46,48,50,52,-1,54,-1,-1,-1,-1,-1,-1,-1,-1,-1,-1,-1,-1,-1,-1,-1,-1,-1,-1,-1,-1,-1,-1,-1,-1,-1],"split_conditions":[1.3E1,1.798E3,1.796E3,9E0,6.31E1,1.6E1,1.6E1,1.242E3,1.197E3,2.698E3,7.1E1,1.1E1,1.194E3,2.967E3,2.967E3,7.8779E1,7E0,9.98E2,1.1E1,2.147E3,3.0003332E-2,3.6113698E-2,1.58E2,1.405E3,1.197E3,4.9E1,1.1E1,4E0,2.0707663E-2,1.8E1,1.1157995E-2,-5.4622244E-4,6.7042494E-3,1.793044E-2,1.086678E-2,-1.796479E-2,-8.926526E-3,2.0072805E-3,-4.2370195E-3,1.9964483E-2,8.190122E-3,2.0641817E-2,2.9178413E-2,-2.5021927E-2,-8.632104E-3,-1.8259384E-2,-1.1048267E-2,-2.2976462E-2,-3.0484674E-2,-2.8888715E-2,-2.0285424E-2,1.3950916E-2,1.0609624E-3,-7.3808054E-3,-1.5851498E-2],"split_indices":[2,8,8,2,12,2,2,8,8,8,1,0,8,8,8,12,2,8,2,8,0,0,1,8,8,9,0,0,0,2,0,0,0,0,0,0,0,0,0,0,0,0,0,0,0,0,0,0,0,0,0,0,0,0,0],"split_type":[0,0,0,0,0,0,0,0,0,0,0,0,0,0,0,0,0,0,0,0,0,0,0,0,0,0,0,0,0,0,0,0,0,0,0,0,0,0,0,0,0,0,0,0,0,0,0,0,0,0,0,0,0,0,0],"sum_hessian":[2.2272E4,1.5936E4,6.336E3,1.3035E4,2.901E3,4.987E3,1.349E3,6.228E3,6.807E3,1.231E3,1.67E3,3.071E3,1.916E3,8.88E2,4.61E2,3.732E3,2.496E3,1.383E3,5.424E3,1.082E3,1.49E2,3.01E2,1.369E3,3.69E2,2.702E3,6.75E2,1.241E3,7.69E2,1.19E2,4.1E2,5.1E1,2.182E3,1.55E3,1.047E3,1.449E3,4.54E2,9.29E2,2.791E3,2.633E3,5.73E2,5.09E2,6.28E2,7.41E2,3.24E2,4.5E1,6.32E2,2.07E3,1.02E2,5.73E2,1.74E2,1.067E3,1.96E2,5.73E2,2.59E2,1.51E2],"tree_param":{"num_deleted":"0","num_feature":"13","num_nodes":"55","size_leaf_vector":"1"}},{"base_weights":[-1.3855387E-3,2.1977156E-1,-3.6524332E-1,9.5658004E-2,7.8458256E-1,-4.9008495E-1,1.9142668E-1,-4.1347384E-2,2.690591E-1,8.843977E-1,5.893328E-1,-3.2827985E-1,-7.0426625E-1,1.0822317E-1,6.627319E-1,1.935744E-1,-1.4440456E-1,4.487701E-1,9.1445394E-2,1.1527807E0,8.234963E-1,5.180801E-1,9.3379414E-1,-5.372318E-1,-2.6996487E-1,-7.781655E-1,-4.6324044E-1,2.6005307E-1,-1.8920249E-1,7.3340344E-1,1.1292026E-2,9.835126E-3,1.3386268E-3,-1.5962241E-2,-2.7770982E-3,1.5900217E-2,8.505038E-3,4.897117E-3,-1.4871687E-3,2.5987037E-2,3.738902E-2,2.026506E-2,2.838957E-2,1.9434238E-2,1.1348214E-2,2.3529956E-2,3.496497E-2,-2.1040559E-2,-1.3562098E-2,-1.3727093E-2,-6.7411554E-3,-2.0725183E-2,-2.7082227E-2,-8.750577E-3,-1.9695004E-2,1.3402561E-2,2.543475E-3,6.879326E-3,-8.165161E-3,2.412178E-2,1.5154804E-2],"categories":[],"categories_nodes":[],"categories_segments":[],"categories_sizes":[],"default_left":[0,0,0,0,0,0,0,0,0,0,0,0,0,0,0,0,0,0,0,0,0,0,0,0,0,0,0,0,0,0,0,0,0,0,0,0,0,0,0,0,0,0,0,0,0,0,0,0,0,0,0,0,0,0,0,0,0,0,0,0,0],"id":15,"left_children":[1,3,5,7,9,11,13,15,17,19,21,23,25,27,29,31,33,35,37,39,41,43,45,47,49,51,53,55,57,59,-1,-1,-1,-1,-1,-1,-1,-1,-1,-1,-1,-1,-1,-1,-1,-1,-1,-1,-1,-1,-1,-1,-1,-1,-1,-1,-1,-1,-1,-1,-1],"loss_changes":[1.7923013E3,9.7072974E2,5.8562195E2,2.700051E2,4.60188E1,2.3723999E2,6.0266624E1,1.5392406E2,1.5990121E2,2.207544E1,1.8664215E1,4.7137604E1,5.0848755E1,5.985472E1,3.2941132E0,3.8704834E1,8.853227E1,3.2706177E1,2.5643852E1,2.400238E0,2.1433777E1,1.188765E1,3.1230927E-1,1.0322937E1,2.5646484E1,2.1413208E1,2.2449677E1,2.8475815E1,1.5903072E1,8.719101E-1,0E0,0E0,0E0,0E0,0E0,0E0,0E0,0E0,0E0,0E0,0E0,0E0,0E0,0E0,0E0,0E0,0E0,0E0,0E0,0E0,0E0,0E0,0E0,0E0,0E0,0E0,0E0,0E0,0E0,0E0,0E0],"parents":[2147483647,0,0,1,1,2,2,3,3,4,4,5,5,6,6,7,7,8,8,9,9,10,10,11,11,12,12,13,13,14,14,15,15,16,16,17,17,18,18,19,19,20,20,21,21,22,22,23,23,24,24,25,25,26,26,27,27,28,28,29,29],"right_children":[2,4,6,8,10,12,14,16,18,20,22,24,26,28,30,32,34,36,38,40,42,44,46,48,50,52,54,56,58,60,-1,-1,-1,-1,-1,-1,-1,-1,-1,-1,-1,-1,-1,-1,-1,-1,-1,-1,-1,-1,-1,-1,-1,-1,-1,-1,-1,-1,-1,-1,-1],"split_conditions":[1.2E1,1.798E3,1.95E3,1.242E3,6.4933E4,1.5E1,2.967E3,7E0,9E0,4E0,2.698E3,1.197E3,1.496E3,1.5E1,1.6E1,2.03E1,9.98E2,2.112E1,1.1E1,1.969E3,1.58E2,2.179E3,1.424E1,9.98E2,7.4E1,1.7E1,1.7E1,2.157E3,4E0,3.3E1,1.1292026E-2,9.835126E-3,1.3386268E-3,-1.5962241E-2,-2.7770982E-3,1.5900217E-2,8.505038E-3,4.897117E-3,-1.4871687E-3,2.5987037E-2,3.738902E-2,2.026506E-2,2.838957E-2,1.9434238E-2,1.1348214E-2,2.3529956E-2,3.496497E-2,-2.1040559E-2,-1.3562098E-2,-1.3727093E-2,-6.7411554E-3,-2.0725183E-2,-2.7082227E-2,-8.750577E-3,-1.9695004E-2,1.3402561E-2,2.543475E-3,6.879326E-3,-8.165161E-3,2.412178E-2,1.5154804E-2],"split_indices":[2,8,8,8,5,2,8,2,2,0,8,8,8,2,2,6,8,6,2,8,1,8,6,8,1,2,2,8,0,0,0,0,0,0,0,0,0,0,0,0,0,0,0,0,0,0,0,0,0,0,0,0,0,0,0,0,0,0,0,0,0],"split_type":[0,0,0,0,0,0,0,0,0,0,0,0,0,0,0,0,0,0,0,0,0,0,0,0,0,0,0,0,0,0,0,0,0,0,0,0,0,0,0,0,0,0,0,0,0,0,0,0,0,0,0,0,0,0,0,0,0,0,0,0,0],"sum_hessian":[2.2263E4,1.3848E4,8.415E3,1.1358E4,2.49E3,6.874E3,1.541E3,6.347E3,5.011E3,1.636E3,8.54E2,3.923E3,2.951E3,1.315E3,2.26E2,1.934E3,4.413E3,2.487E3,2.524E3,2.86E2,1.35E3,7.18E2,1.36E2,8.47E2,3.076E3,2.25E3,7.01E2,8.71E2,4.44E2,1.75E2,5.1E1,1.014E3,9.2E2,5.15E2,3.898E3,1.66E3,8.27E2,1.672E3,8.52E2,8.3E1,2.03E2,6.27E2,7.23E2,3.63E2,3.55E2,9.6E1,4E1,2.77E2,5.7E2,5.89E2,2.487E3,1.342E3,9.08E2,3.78E2,3.23E2,4.18E2,4.53E2,7.2E1,3.72E2,1.24E2,5.1E1],"tree_param":{"num_deleted":"0","num_feature":"13","num_nodes":"61","size_leaf_vector":"1"}},{"base_weights":[5.988681E-4,1.7527343E-1,-4.3629378E-1,5.34432E-2,7.148409E-1,-5.5666804E-1,1.0586963E-1,2.2343409E-1,-1.0250055E-1,9.123633E-1,4.2128247E-1,-4.29599E-1,-7.482899E-1,3.6020705E-1,-1.6841711E-1,8.454645E-2,4.3313682E-1,-3.7670228E-1,-3.2740783E-2,1.0383663E0,7.2894096E-1,5.807153E-1,1.712063E-1,-4.9075022E-1,-2.2246589E-1,-9.1830397E-1,-6.6279495E-1,4.4136736E-1,6.744282E-2,-7.9780184E-2,-4.658353E-1,5.4384386E-3,-4.160204E-3,1.7583359E-2,1.0602555E-2,-1.68685E-2,-8.528455E-3,-9.220839E-3,2.1741254E-4,3.2869942E-2,2.5788037E-2,1.985956E-2,3.215705E-2,1.4586432E-2,2.1556951E-2,3.2547698E-3,1.4828011E-2,-2.371114E-2,-1.3333593E-2,4.843674E-3,-7.7479663E-3,-2.8509626E-2,-2.1987544E-2,-2.8069505E-2,-1.8525342E-2,1.0848004E-2,2.0712806E-2,-2.2033E-3,1.00895865E-2,-4.0817237E-3,1.1149883E-2,-8.86246E-3,-1.8702786E-2],"categories":[],"categories_nodes":[],"categories_segments":[],"categories_sizes":[],"default_left":[0,0,0,0,0,0,0,0,0,0,0,0,0,0,0,0,0,0,0,0,0,0,0,0,0,0,0,0,0,0,0,0,0,0,0,0,0,0,0,0,0,0,0,0,0,0,0,0,0,0,0,0,0,0,0,0,0,0,0,0,0,0,0],"id":16,"left_children":[1,3,5,7,9,11,13,15,17,19,21,23,25,27,29,31,33,35,37,39,41,43,45,47,49,51,53,55,57,59,61,-1,-1,-1,-1,-1,-1,-1,-1,-1,-1,-1,-1,-1,-1,-1,-1,-1,-1,-1,-1,-1,-1,-1,-1,-1,-1,-1,-1,-1,-1,-1,-1],"loss_changes":[1.7011934E3,1.0466488E3,4.1582104E2,3.446522E2,1.6814648E2,1.2527649E2,8.1296295E1,1.8097516E2,1.296661E2,3.6637817E1,4.6908752E1,3.92901E1,2.705957E1,1.4202705E1,1.4629756E1,8.10568E1,2.9171051E1,2.2784058E1,5.944295E1,5.789917E0,1.319223E1,7.684601E0,9.254276E0,3.1868347E1,1.0186832E1,5.536499E-1,1.4359863E1,8.12883E0,5.3132005E0,1.1406063E1,2.5168E0,0E0,0E0,0E0,0E0,0E0,0E0,0E0,0E0,0E0,0E0,0E0,0E0,0E0,0E0,0E0,0E0,0E0,0E0,0E0,0E0,0E0,0E0,0E0,0E0,0E0,0E0,0E0,0E0,0E0,0E0,0E0,0E0],"parents":[2147483647,0,0,1,1,2,2,3,3,4,4,5,5,6,6,7,7,8,8,9,9,10,10,11,11,12,12,13,13,14,14,15,15,16,16,17,17,18,18,19,19,20,20,21,21,22,22,23,23,24,24,25,25,26,26,27,27,28,28,29,29,30,30],"right_children":[2,4,6,8,10,12,14,16,18,20,22,24,26,28,30,32,34,36,38,40,42,44,46,48,50,52,54,56,58,60,62,-1,-1,-1,-1,-1,-1,-1,-1,-1,-1,-1,-1,-1,-1,-1,-1,-1,-1,-1,-1,-1,-1,-1,-1,-1,-1,-1,-1,-1,-1,-1,-1],"split_conditions":[1.3E1,1.798E3,1.95E3,9E0,1E0,1.6E1,1E0,1.242E3,1.197E3,1E1,1E1,1.497E3,1.194E3,1.6E1,1.7E1,2.143E1,1E0,9.98E2,7.2E1,2.62E2,2.835E3,7.55E1,3E2,6.7E1,1.38E1,1.971E1,7E1,2.956E3,2.498E3,2.569E3,1.3E1,5.4384386E-3,-4.160204E-3,1.7583359E-2,1.0602555E-2,-1.68685E-2,-8.528455E-3,-9.220839E-3,2.1741254E-4,3.2869942E-2,2.5788037E-2,1.985956E-2,3.215705E-2,1.4586432E-2,2.1556951E-2,3.2547698E-3,1.4828011E-2,-2.371114E-2,-1.3333593E-2,4.843674E-3,-7.7479663E-3,-2.8509626E-2,-2.1987544E-2,-2.8069505E-2,-1.8525342E-2,1.0848004E-2,2.0712806E-2,-2.2033E-3,1.00895865E-2,-4.0817237E-3,1.1149883E-2,-8.86246E-3,-1.8702786E-2],"split_indices":[2,8,8,2,4,2,4,8,8,2,2,8,8,2,2,6,4,8,1,1,8,12,1,1,6,6,1,8,8,8,6,0,0,0,0,0,0,0,0,0,0,0,0,0,0,0,0,0,0,0,0,0,0,0,0,0,0,0,0,0,0,0,0],"split_type":[0,0,0,0,0,0,0,0,0,0,0,0,0,0,0,0,0,0,0,0,0,0,0,0,0,0,0,0,0,0,0,0,0,0,0,0,0,0,0,0,0,0,0,0,0,0,0,0,0,0,0,0,0,0,0,0,0,0,0,0,0,0,0],"sum_hessian":[2.2282E4,1.592E4,6.362E3,1.2992E4,2.928E3,5.206E3,1.156E3,6.215E3,6.777E3,1.744E3,1.184E3,3.14E3,2.066E3,5.99E2,5.57E2,3.743E3,2.472E3,1.37E3,5.407E3,1.02E3,7.24E2,7.19E2,4.65E2,2.419E3,7.21E2,6.75E2,1.391E3,4.67E2,1.32E2,4.34E2,1.23E2,2.612E3,1.131E3,8.36E2,1.636E3,4.47E2,9.23E2,6.83E2,4.724E3,7.53E2,2.67E2,6.18E2,1.06E2,4.4E2,2.79E2,3.95E2,7E1,3.13E2,2.106E3,6E1,6.61E2,5.58E2,1.17E2,1.84E2,1.207E3,3.63E2,1.04E2,8.9E1,4.3E1,3.89E2,4.5E1,6.6E1,5.7E1],"tree_param":{"num_deleted":"0","num_feature":"13","num_nodes":"63","size_leaf_vector":"1"}},{"base_weights":[2.909971E-3,4.7878155E-1,-1.4234579E-1,2.6856667E-1,7.523969E-1,-4.053369E-1,8.743819E-2,5.9657626E-2,4.3245697E-1,4.6394023E-1,9.5680237E-1,-6.80368E-1,-3.203443E-1,-6.8063065E-2,2.7897507E-1,-1.3034678E-1,1.516254E-1,5.823033E-1,1.6367672E-1,1.2020422E-1,5.4108113E-1,7.97708E-1,1.0446442E0,-7.9331446E-1,-4.8216262E-1,-5.2729774E-1,-2.264712E-1,-4.5830533E-1,-1.6708162E-2,1.6202554E-1,4.4543508E-1,-9.311823E-3,-1.777105E-3,-3.3694054E-3,7.177732E-3,1.5406063E-2,2.1741759E-2,-7.627869E-4,7.039951E-3,7.47991E-4,1.1388083E-2,1.4737785E-2,2.5760034E-2,2.2061255E-2,3.4090895E-2,3.3046067E-2,2.7012054E-2,-2.5814483E-2,-1.954851E-2,-1.9469535E-2,-1.235262E-2,-1.7743435E-2,-4.674986E-3,-8.641639E-3,-4.6849618E-4,-1.4566061E-2,-9.003254E-3,-3.2966016E-3,4.138608E-3,2.6987235E-3,9.729049E-3,1.1271585E-2,1.945478E-2],"categories":[],"categories_nodes":[],"categories_segments":[],"categories_sizes":[],"default_left":[0,0,0,0,0,0,0,0,0,0,0,0,0,0,0,0,0,0,0,0,0,0,0,0,0,0,0,0,0,0,0,0,0,0,0,0,0,0,0,0,0,0,0,0,0,0,0,0,0,0,0,0,0,0,0,0,0,0,0,0,0,0,0],"id":17,"left_children":[1,3,5,7,9,11,13,15,17,19,21,23,25,27,29,31,33,35,37,39,41,43,45,47,49,51,53,55,57,59,61,-1,-1,-1,-1,-1,-1,-1,-1,-1,-1,-1,-1,-1,-1,-1,-1,-1,-1,-1,-1,-1,-1,-1,-1,-1,-1,-1,-1,-1,-1,-1,-1],"loss_changes":[1.5393663E3,2.9854346E2,1.0312534E3,1.0097632E2,1.3103491E2,1.8491003E2,2.7142926E2,2.288528E1,6.6139496E1,2.4785568E1,1.4252686E1,4.0039917E1,1.17676636E2,1.0080729E2,7.91246E1,5.387817E0,2.0511528E1,8.5208435E0,8.070871E0,4.4010544E0,1.0105972E1,6.1653137E0,1.8765869E0,8.484375E0,6.803665E0,4.471997E1,5.447621E1,1.7914429E0,6.423428E1,2.7992126E1,2.259262E1,0E0,0E0,0E0,0E0,0E0,0E0,0E0,0E0,0E0,0E0,0E0,0E0,0E0,0E0,0E0,0E0,0E0,0E0,0E0,0E0,0E0,0E0,0E0,0E0,0E0,0E0,0E0,0E0,0E0,0E0,0E0,0E0],"parents":[2147483647,0,0,1,1,2,2,3,3,4,4,5,5,6,6,7,7,8,8,9,9,10,10,11,11,12,12,13,13,14,14,15,15,16,16,17,17,18,18,19,19,20,20,21,21,22,22,23,23,24,24,25,25,26,26,27,27,28,28,29,29,30,30],"right_children":[2,4,6,8,10,12,14,16,18,20,22,24,26,28,30,32,34,36,38,40,42,44,46,48,50,52,54,56,58,60,62,-1,-1,-1,-1,-1,-1,-1,-1,-1,-1,-1,-1,-1,-1,-1,-1,-1,-1,-1,-1,-1,-1,-1,-1,-1,-1,-1,-1,-1,-1,-1,-1],"split_conditions":[1E0,1.898E3,5.77E1,6.80354E1,5.6E1,1.197E3,1.242E3,1.199E3,1.897E1,3.62728E1,6.5516E1,4.87891E1,4.04E1,9.98E2,7.03783E1,5.43739E1,4.83E1,8.17001E1,1.12E3,2.956E3,2.987E3,2.835E3,2.179E3,1.971E1,9.98E2,2.143E3,1.582E3,7.93425E1,7.45E1,1.582E3,1.599E3,-9.311823E-3,-1.777105E-3,-3.3694054E-3,7.177732E-3,1.5406063E-2,2.1741759E-2,-7.627869E-4,7.039951E-3,7.47991E-4,1.1388083E-2,1.4737785E-2,2.5760034E-2,2.2061255E-2,3.4090895E-2,3.3046067E-2,2.7012054E-2,-2.5814483E-2,-1.954851E-2,-1.9469535E-2,-1.235262E-2,-1.7743435E-2,-4.674986E-3,-8.641639E-3,-4.6849618E-4,-1.4566061E-2,-9.003254E-3,-3.2966016E-3,4.138608E-3,2.6987235E-3,9.729049E-3,1.1271585E-2,1.945478E-2],"split_indices":[4,8,12,12,12,8,8,8,6,12,12,12,12,8,12,12,12,12,8,8,8,8,8,6,8,8,8,12,12,8,8,0,0,0,0,0,0,0,0,0,0,0,0,0,0,0,0,0,0,0,0,0,0,0,0,0,0,0,0,0,0,0,0],"split_type":[0,0,0,0,0,0,0,0,0,0,0,0,0,0,0,0,0,0,0,0,0,0,0,0,0,0,0,0,0,0,0,0,0,0,0,0,0,0,0,0,0,0,0,0,0,0,0,0,0,0,0,0,0,0,0,0,0,0,0,0,0,0,0],"sum_hessian":[2.226E4,5.203E3,1.7057E4,2.948E3,2.255E3,7.952E3,9.105E3,1.299E3,1.649E3,9.42E2,1.313E3,1.869E3,6.083E3,5.027E3,4.078E3,4.23E2,8.76E2,1.055E3,5.94E2,1.75E2,7.67E2,4.85E2,8.28E2,1.181E3,6.88E2,1.891E3,4.192E3,5.8E2,4.447E3,2.401E3,1.677E3,1.15E2,3.08E2,2.18E2,6.58E2,7.27E2,3.28E2,1.63E2,4.31E2,1.32E2,4.3E1,6.74E2,9.3E1,4.23E2,6.2E1,5.7E2,2.58E2,7.84E2,3.97E2,1.92E2,4.96E2,1.61E3,2.81E2,3.243E3,9.49E2,4.86E2,9.4E1,2.776E3,1.671E3,1.668E3,7.33E2,1.259E3,4.18E2],"tree_param":{"num_deleted":"0","num_feature":"13","num_nodes":"63","size_leaf_vector":"1"}},{"base_weights":[-9.900957E-4,1.6316317E-1,-4.1462663E-1,4.9385477E-2,6.7165893E-1,-5.379812E-1,5.133078E-2,2.0910376E-1,-9.6778855E-2,7.734989E-1,4.151894E-1,-4.1785994E-1,-7.291067E-1,2.0370097E-1,-2.5059393E-1,7.7337466E-2,4.0741628E-1,-3.5639566E-1,-3.1548996E-2,1.0732574E0,7.1607167E-1,3.5601366E-1,2.6895603E-2,-7.0822465E-1,-3.7862942E-1,-8.7024885E-1,-6.500908E-1,1.2995732E-1,1.8894581E-2,-3.168568E-1,8.611163E-3,5.0929743E-3,-4.049401E-3,1.59507E-2,9.44405E-3,-1.5916426E-2,-8.167603E-3,-8.757751E-3,1.7857303E-4,2.4805885E-2,3.4491092E-2,1.7236613E-2,2.5559673E-2,1.6211383E-2,4.7700307E-3,-2.2948975E-2,-7.6852967E-3,-1.6518887E-2,-9.826648E-3,-1.9789618E-2,-2.7040258E-2,-1.3157539E-2,-2.082724E-2,1.2955421E-2,7.296275E-4,-6.283747E-3,-1.4844758E-2],"categories":[],"categories_nodes":[],"categories_segments":[],"categories_sizes":[],"default_left":[0,0,0,0,0,0,0,0,0,0,0,0,0,0,0,0,0,0,0,0,0,0,0,0,0,0,0,0,0,0,0,0,0,0,0,0,0,0,0,0,0,0,0,0,0,0,0,0,0,0,0,0,0,0,0,0,0],"id":18,"left_children":[1,3,5,7,9,11,13,15,17,19,21,23,25,27,29,31,33,35,37,39,41,43,-1,45,47,49,51,53,-1,55,-1,-1,-1,-1,-1,-1,-1,-1,-1,-1,-1,-1,-1,-1,-1,-1,-1,-1,-1,-1,-1,-1,-1,-1,-1,-1,-1],"loss_changes":[1.5190527E3,9.264475E2,3.6546814E2,3.0575882E2,7.487024E1,1.13864746E2,6.1671005E1,1.6336966E2,1.15777596E2,3.2135254E1,2.241539E1,3.3949036E1,1.8729004E1,2.7557697E1,1.6486036E1,7.401915E1,2.7902496E1,1.9397064E1,5.3439888E1,1.3872375E0,3.1578674E1,2.7139084E1,0E0,8.331039E0,2.3168549E1,1.4733276E0,1.0234253E1,2.4343775E1,0E0,7.18454E0,0E0,0E0,0E0,0E0,0E0,0E0,0E0,0E0,0E0,0E0,0E0,0E0,0E0,0E0,0E0,0E0,0E0,0E0,0E0,0E0,0E0,0E0,0E0,0E0,0E0,0E0,0E0],"parents":[2147483647,0,0,1,1,2,2,3,3,4,4,5,5,6,6,7,7,8,8,9,9,10,10,11,11,12,12,13,13,14,14,15,15,16,16,17,17,18,18,19,19,20,20,21,21,23,23,24,24,25,25,26,26,27,27,29,29],"right_children":[2,4,6,8,10,12,14,16,18,20,22,24,26,28,30,32,34,36,38,40,42,44,-1,46,48,50,52,54,-1,56,-1,-1,-1,-1,-1,-1,-1,-1,-1,-1,-1,-1,-1,-1,-1,-1,-1,-1,-1,-1,-1,-1,-1,-1,-1,-1,-1],"split_conditions":[1.3E1,1.798E3,1.796E3,9E0,1.1E1,1.6E1,1.6E1,1.242E3,1.197E3,4E0,2.967E3,1.1E1,1.194E3,2.967E3,2.967E3,2.143E1,7E0,9.98E2,7.2E1,1.969E3,2.02E2,2.147E3,2.6895603E-2,1.405E3,1.194E3,4.9E1,4.9E1,4E0,1.8894581E-2,1.8E1,8.611163E-3,5.0929743E-3,-4.049401E-3,1.59507E-2,9.44405E-3,-1.5916426E-2,-8.167603E-3,-8.757751E-3,1.7857303E-4,2.4805885E-2,3.4491092E-2,1.7236613E-2,2.5559673E-2,1.6211383E-2,4.7700307E-3,-2.2948975E-2,-7.6852967E-3,-1.6518887E-2,-9.826648E-3,-1.9789618E-2,-2.7040258E-2,-1.3157539E-2,-2.082724E-2,1.2955421E-2,7.296275E-4,-6.283747E-3,-1.4844758E-2],"split_indices":[2,8,8,2,2,2,2,8,8,0,8,0,8,8,8,6,2,8,1,8,1,8,0,8,8,9,9,0,0,2,0,0,0,0,0,0,0,0,0,0,0,0,0,0,0,0,0,0,0,0,0,0,0,0,0,0,0],"split_type":[0,0,0,0,0,0,0,0,0,0,0,0,0,0,0,0,0,0,0,0,0,0,0,0,0,0,0,0,0,0,0,0,0,0,0,0,0,0,0,0,0,0,0,0,0,0,0,0,0,0,0,0,0,0,0,0,0],"sum_hessian":[2.2362E4,1.6011E4,6.351E3,1.3088E4,2.923E3,5.021E3,1.33E3,6.253E3,6.835E3,2.085E3,8.38E2,3.093E3,1.928E3,8.85E2,4.45E2,3.761E3,2.492E3,1.368E3,5.467E3,3.21E2,1.764E3,7.54E2,8.4E1,3.58E2,2.735E3,6.74E2,1.254E3,7.6E2,1.25E2,3.98E2,4.7E1,2.621E3,1.14E3,1.054E3,1.438E3,4.37E2,9.31E2,6.84E2,4.783E3,9E1,2.31E2,8.77E2,8.87E2,3.85E2,3.69E2,3.15E2,4.3E1,6.15E2,2.12E3,1.01E2,5.73E2,2.26E2,1.028E3,1.93E2,5.67E2,2.55E2,1.43E2],"tree_param":{"num_deleted":"0","num_feature":"13","num_nodes":"57","size_leaf_vector":"1"}},{"base_weights":[-8.456083E-4,1.9486037E-1,-3.251392E-1,8.548641E-2,6.9791406E-1,2.4062125E-1,-4.2107287E-1,-3.3755314E-2,2.3851763E-1,8.670186E-1,4.3971682E-1,-7.719034E-2,4.081642E-1,-2.771271E-1,-6.1738896E-1,1.8079382E-1,-1.2887451E-1,8.6707875E-2,3.9710414E-1,9.963593E-1,7.3207027E-1,2.7344748E-1,5.769205E-1,-2.0214036E-2,-1.2465696E-2,4.7684476E-1,2.5978824E-2,-3.560216E-1,-1.0141196E-1,-6.972752E-1,-4.124241E-1,8.00345E-3,-5.119688E-4,-1.4031969E-2,-2.5131244E-3,1.2961085E-3,8.442268E-3,1.6369103E-2,9.764582E-3,3.326876E-2,2.7222902E-2,2.0528493E-2,3.109988E-2,6.499542E-3,1.7661935E-2,1.47471E-2,2.0553242E-2,-4.0256763E-3,7.218478E-3,1.245749E-2,2.1197995E-2,-3.3239117E-3,6.110047E-3,-1.9757899E-2,-9.48198E-3,4.1792938E-3,-4.291061E-3,-1.4121294E-2,-2.2287512E-2,-8.382366E-3,-1.6876804E-2],"categories":[],"categories_nodes":[],"categories_segments":[],"categories_sizes":[],"default_left":[0,0,0,0,0,0,0,0,0,0,0,0,0,0,0,0,0,0,0,0,0,0,0,0,0,0,0,0,0,0,0,0,0,0,0,0,0,0,0,0,0,0,0,0,0,0,0,0,0,0,0,0,0,0,0,0,0,0,0,0,0],"id":19,"left_children":[1,3,5,7,9,11,13,15,17,19,21,23,25,27,29,31,33,35,37,39,41,43,45,47,-1,49,51,53,55,57,59,-1,-1,-1,-1,-1,-1,-1,-1,-1,-1,-1,-1,-1,-1,-1,-1,-1,-1,-1,-1,-1,-1,-1,-1,-1,-1,-1,-1,-1,-1],"loss_changes":[1.4141533E3,7.6427313E2,4.5566077E2,2.0842911E2,1.06420044E2,6.5065735E1,2.0181714E2,1.3119542E2,1.20250885E2,2.2429688E1,2.1841476E1,8.150709E0,2.0910767E1,5.7309143E1,4.817505E1,3.3624435E1,6.7862595E1,2.1640184E1,2.5120972E1,2.4685059E0,7.3698425E0,7.5636024E0,3.293167E0,1.11311245E1,0E0,8.113693E0,3.19939E0,3.353531E1,1.3045032E1,2.0722168E1,1.64281E1,0E0,0E0,0E0,0E0,0E0,0E0,0E0,0E0,0E0,0E0,0E0,0E0,0E0,0E0,0E0,0E0,0E0,0E0,0E0,0E0,0E0,0E0,0E0,0E0,0E0,0E0,0E0,0E0,0E0,0E0],"parents":[2147483647,0,0,1,1,2,2,3,3,4,4,5,5,6,6,7,7,8,8,9,9,10,10,11,11,12,12,13,13,14,14,15,15,16,16,17,17,18,18,19,19,20,20,21,21,22,22,23,23,25,25,26,26,27,27,28,28,29,29,30,30],"right_children":[2,4,6,8,10,12,14,16,18,20,22,24,26,28,30,32,34,36,38,40,42,44,46,48,-1,50,52,54,56,58,60,-1,-1,-1,-1,-1,-1,-1,-1,-1,-1,-1,-1,-1,-1,-1,-1,-1,-1,-1,-1,-1,-1,-1,-1,-1,-1,-1,-1,-1,-1],"split_conditions":[1.2E1,1.798E3,1E0,1.242E3,1E0,1.898E3,1.5E1,7E0,6.78E1,9E0,6.69574E1,1.7E1,1.6E1,1.497E3,1.496E3,2.102E1,9.98E2,1.582E3,1E0,1.3E2,2.835E3,3E2,7.74631E1,1.595E3,-1.2465696E-2,2.956E3,1.26E1,6.7E1,1.38E1,4.9E1,1.7E1,8.00345E-3,-5.119688E-4,-1.4031969E-2,-2.5131244E-3,1.2961085E-3,8.442268E-3,1.6369103E-2,9.764582E-3,3.326876E-2,2.7222902E-2,2.0528493E-2,3.109988E-2,6.499542E-3,1.7661935E-2,1.47471E-2,2.0553242E-2,-4.0256763E-3,7.218478E-3,1.245749E-2,2.1197995E-2,-3.3239117E-3,6.110047E-3,-1.9757899E-2,-9.48198E-3,4.1792938E-3,-4.291061E-3,-1.4121294E-2,-2.2287512E-2,-8.382366E-3,-1.6876804E-2],"split_indices":[2,8,4,8,4,8,2,2,12,2,12,2,2,8,8,6,8,8,4,1,8,1,12,8,0,8,6,1,6,9,2,0,0,0,0,0,0,0,0,0,0,0,0,0,0,0,0,0,0,0,0,0,0,0,0,0,0,0,0,0,0],"split_type":[0,0,0,0,0,0,0,0,0,0,0,0,0,0,0,0,0,0,0,0,0,0,0,0,0,0,0,0,0,0,0,0,0,0,0,0,0,0,0,0,0,0,0,0,0,0,0,0,0,0,0,0,0,0,0,0,0,0,0,0,0],"sum_hessian":[2.2272E4,1.3891E4,8.381E3,1.1415E4,2.476E3,1.214E3,7.167E3,6.418E3,4.997E3,1.489E3,9.87E2,4.2E2,7.94E2,4.142E3,3.025E3,1.97E3,4.448E3,2.557E3,2.44E3,7.44E2,7.45E2,4.53E2,5.34E2,3.64E2,5.6E1,6.72E2,1.22E2,2.855E3,1.287E3,2.168E3,8.57E2,1.372E3,5.98E2,5.17E2,3.931E3,2.095E3,4.62E2,7.83E2,1.657E3,3.03E2,4.41E2,6.58E2,8.7E1,3.91E2,6.2E1,3.14E2,2.2E2,2.55E2,1.09E2,5.41E2,1.31E2,7E1,5.2E1,3.24E2,2.531E3,1.88E2,1.099E3,3.73E2,1.795E3,4.62E2,3.95E2],"tree_param":{"num_deleted":"0","num_feature":"13","num_nodes":"61","size_leaf_vector":"1"}},{"base_weights":[-1.7755588E-4,1.9075438E-1,-3.168116E-1,8.415899E-2,6.790323E-1,-4.227295E-1,1.5392387E-1,-3.455779E-2,2.3498371E-1,8.506588E-1,4.1730517E-1,-2.843914E-1,-6.0915524E-1,3.8181427E-1,-9.8644964E-2,1.2411712E-1,-1.5641162E-1,4.500014E-1,1.2586245E-1,9.735449E-1,7.254069E-1,2.5530657E-1,5.572499E-1,-4.604457E-1,-2.3536867E-1,-7.850908E-1,-5.3228086E-1,4.8876652E-1,1.478922E-1,-1.3295941E-2,-3.5110328E-1,9.494383E-3,2.1282963E-3,-1.4324386E-2,-3.3228507E-3,1.7501531E-2,1.1139912E-2,5.504227E-3,-1.2971968E-3,3.2540984E-2,2.6570523E-2,2.020046E-2,3.1379458E-2,5.979727E-3,1.696194E-2,1.3607844E-2,1.9269202E-2,-1.8326486E-2,-1.166559E-2,-1.1784389E-2,-5.9031122E-3,-2.0478016E-2,-2.6065176E-2,-2.4088798E-2,-1.4714974E-2,1.273322E-2,2.2024881E-2,1.1782213E-3,1.243941E-2,-2.8357874E-3,7.886967E-3,-1.4572763E-2,-6.6096378E-3],"categories":[],"categories_nodes":[],"categories_segments":[],"categories_sizes":[],"default_left":[0,0,0,0,0,0,0,0,0,0,0,0,0,0,0,0,0,0,0,0,0,0,0,0,0,0,0,0,0,0,0,0,0,0,0,0,0,0,0,0,0,0,0,0,0,0,0,0,0,0,0,0,0,0,0,0,0,0,0,0,0,0,0],"id":20,"left_children":[1,3,5,7,9,11,13,15,17,19,21,23,25,27,29,31,33,35,37,39,41,43,45,47,49,51,53,55,57,59,61,-1,-1,-1,-1,-1,-1,-1,-1,-1,-1,-1,-1,-1,-1,-1,-1,-1,-1,-1,-1,-1,-1,-1,-1,-1,-1,-1,-1,-1,-1,-1,-1],"loss_changes":[1.3416295E3,7.202693E2,4.1655072E2,2.0360736E2,1.09625E2,1.7491687E2,8.865498E1,1.231846E2,1.1721951E2,1.9448853E1,2.1778137E1,3.3307617E1,3.7119385E1,1.9878532E1,1.577066E1,2.820066E1,5.2543762E1,1.6587708E1,3.247175E1,2.4136963E0,9.145081E0,7.578182E0,3.19841E0,7.956192E0,1.8318756E1,4.510803E0,2.1022827E1,7.171234E0,7.480899E0,1.2531025E1,2.7228317E0,0E0,0E0,0E0,0E0,0E0,0E0,0E0,0E0,0E0,0E0,0E0,0E0,0E0,0E0,0E0,0E0,0E0,0E0,0E0,0E0,0E0,0E0,0E0,0E0,0E0,0E0,0E0,0E0,0E0,0E0,0E0,0E0],"parents":[2147483647,0,0,1,1,2,2,3,3,4,4,5,5,6,6,7,7,8,8,9,9,10,10,11,11,12,12,13,13,14,14,15,15,16,16,17,17,18,18,19,19,20,20,21,21,22,22,23,23,24,24,25,25,26,26,27,27,28,28,29,29,30,30],"right_children":[2,4,6,8,10,12,14,16,18,20,22,24,26,28,30,32,34,36,38,40,42,44,46,48,50,52,54,56,58,60,62,-1,-1,-1,-1,-1,-1,-1,-1,-1,-1,-1,-1,-1,-1,-1,-1,-1,-1,-1,-1,-1,-1,-1,-1,-1,-1,-1,-1,-1,-1,-1,-1],"split_conditions":[1.2E1,1.781E3,1.95E3,1.242E3,1E0,1.5E1,1E0,8E0,8E0,9E0,6.69574E1,1.197E3,1.194E3,1.5E1,1.6E1,1E0,9.98E2,1E0,1.1E1,2.1E1,2.835E3,3E2,7.55E1,9.98E2,7.4E1,1.7E1,1.1E1,2.956E3,2.956E3,3.7E1,2.477E3,9.494383E-3,2.1282963E-3,-1.4324386E-2,-3.3228507E-3,1.7501531E-2,1.1139912E-2,5.504227E-3,-1.2971968E-3,3.2540984E-2,2.6570523E-2,2.020046E-2,3.1379458E-2,5.979727E-3,1.696194E-2,1.3607844E-2,1.9269202E-2,-1.8326486E-2,-1.166559E-2,-1.1784389E-2,-5.9031122E-3,-2.0478016E-2,-2.6065176E-2,-2.4088798E-2,-1.4714974E-2,1.273322E-2,2.2024881E-2,1.1782213E-3,1.243941E-2,-2.8357874E-3,7.886967E-3,-1.4572763E-2,-6.6096378E-3],"split_indices":[2,8,8,8,4,2,4,2,2,2,12,8,8,2,2,4,8,4,2,0,8,1,12,8,1,2,0,8,8,0,8,0,0,0,0,0,0,0,0,0,0,0,0,0,0,0,0,0,0,0,0,0,0,0,0,0,0,0,0,0,0,0,0],"split_type":[0,0,0,0,0,0,0,0,0,0,0,0,0,0,0,0,0,0,0,0,0,0,0,0,0,0,0,0,0,0,0,0,0,0,0,0,0,0,0,0,0,0,0,0,0,0,0,0,0,0,0,0,0,0,0,0,0,0,0,0,0,0,0],"sum_hessian":[2.2182E4,1.3839E4,8.343E3,1.1364E4,2.475E3,6.811E3,1.532E3,6.361E3,5.003E3,1.488E3,9.87E2,3.917E3,2.894E3,8.04E2,7.28E2,2.763E3,3.598E3,1.679E3,3.324E3,7.34E2,7.54E2,4.64E2,5.23E2,8.44E2,3.073E3,8.66E2,2.028E3,5.48E2,2.56E2,5.48E2,1.8E2,5.93E2,2.17E3,4.42E2,3.156E3,6.11E2,1.068E3,2.479E3,8.45E2,2.99E2,4.35E2,6.62E2,9.2E1,4E2,6.4E1,2.5E2,2.73E2,2.6E2,5.84E2,5.96E2,2.477E3,4.1E2,4.56E2,2.59E2,1.769E3,4.45E2,1.03E2,1.86E2,7E1,4.26E2,1.22E2,8.2E1,9.8E1],"tree_param":{"num_deleted":"0","num_feature":"13","num_nodes":"63","size_leaf_vector":"1"}},{"base_weights":[3.4335053E-3,1.5270117E-1,-3.7803105E-1,4.8288323E-2,6.1345494E-1,-4.8912412E-1,3.422318E-2,1.5944813E-1,-1.3328321E-1,7.8352654E-1,3.6017883E-1,-3.7877792E-1,-6.6391605E-1,2.6207545E-1,-1.8688379E-1,3.915075E-2,3.2532686E-1,-3.5231665E-1,-7.4237525E-2,8.9976734E-1,6.140949E-1,4.9430436E-1,1.476687E-1,-7.3366356E-1,-3.5033995E-1,-7.9005283E-1,-5.8974576E-1,3.622206E-1,-3.2041483E-2,-8.946801E-2,-4.3418184E-1,3.735691E-3,-4.5653926E-3,1.4812131E-2,7.425556E-3,-1.4979143E-2,-8.2743345E-3,-1.6412992E-2,-1.6473109E-3,3.0107077E-2,2.4549985E-2,1.6816458E-2,2.7306288E-2,1.9027436E-2,1.22361975E-2,2.729041E-3,1.3274871E-2,-2.4494875E-2,-1.4581092E-2,-1.5082194E-2,-9.135903E-3,-1.8311223E-2,-2.4454918E-2,-2.479252E-2,-1.6501501E-2,9.323089E-3,1.9720644E-2,-3.9355806E-3,5.957716E-3,-5.2051554E-3,4.4843904E-3,-6.990493E-3,-1.667808E-2],"categories":[],"categories_nodes":[],"categories_segments":[],"categories_sizes":[],"default_left":[0,0,0,0,0,0,0,0,0,0,0,0,0,0,0,0,0,0,0,0,0,0,0,0,0,0,0,0,0,0,0,0,0,0,0,0,0,0,0,0,0,0,0,0,0,0,0,0,0,0,0,0,0,0,0,0,0,0,0,0,0,0,0],"id":21,"left_children":[1,3,5,7,9,11,13,15,17,19,21,23,25,27,29,31,33,35,37,39,41,43,45,47,49,51,53,55,57,59,61,-1,-1,-1,-1,-1,-1,-1,-1,-1,-1,-1,-1,-1,-1,-1,-1,-1,-1,-1,-1,-1,-1,-1,-1,-1,-1,-1,-1,-1,-1,-1,-1],"loss_changes":[1.275467E3,7.744006E2,2.8861493E2,2.651352E2,1.26694214E2,9.446704E1,6.785448E1,1.6250787E2,6.439185E1,3.21958E1,3.3952682E1,2.9536469E1,1.5576965E1,1.9586288E1,1.628383E1,7.732343E1,4.4256256E1,1.1209061E1,3.5821236E1,4.7018433E0,9.150513E0,7.608795E0,7.705824E0,2.5693283E0,1.9040802E1,6.4352417E-1,9.23584E0,6.495117E0,4.086063E0,1.0109682E1,4.0548935E0,0E0,0E0,0E0,0E0,0E0,0E0,0E0,0E0,0E0,0E0,0E0,0E0,0E0,0E0,0E0,0E0,0E0,0E0,0E0,0E0,0E0,0E0,0E0,0E0,0E0,0E0,0E0,0E0,0E0,0E0,0E0,0E0],"parents":[2147483647,0,0,1,1,2,2,3,3,4,4,5,5,6,6,7,7,8,8,9,9,10,10,11,11,12,12,13,13,14,14,15,15,16,16,17,17,18,18,19,19,20,20,21,21,22,22,23,23,24,24,25,25,26,26,27,27,28,28,29,29,30,30],"right_children":[2,4,6,8,10,12,14,16,18,20,22,24,26,28,30,32,34,36,38,40,42,44,46,48,50,52,54,56,58,60,62,-1,-1,-1,-1,-1,-1,-1,-1,-1,-1,-1,-1,-1,-1,-1,-1,-1,-1,-1,-1,-1,-1,-1,-1,-1,-1,-1,-1,-1,-1,-1,-1],"split_conditions":[1.3E1,1.599E3,1.796E3,1E1,1E0,1.6E1,1E0,1.242E3,1.197E3,1E1,1E1,6.3E1,1.197E3,1.6E1,1.7E1,2.143E1,7E0,9.98E2,9E0,1.31E2,2.835E3,7E0,3E2,1.242E3,1.197E3,4.9E1,1.1E1,2.987E3,2.393E3,3E2,1.32E1,3.735691E-3,-4.5653926E-3,1.4812131E-2,7.425556E-3,-1.4979143E-2,-8.2743345E-3,-1.6412992E-2,-1.6473109E-3,3.0107077E-2,2.4549985E-2,1.6816458E-2,2.7306288E-2,1.9027436E-2,1.22361975E-2,2.729041E-3,1.3274871E-2,-2.4494875E-2,-1.4581092E-2,-1.5082194E-2,-9.135903E-3,-1.8311223E-2,-2.4454918E-2,-2.479252E-2,-1.6501501E-2,9.323089E-3,1.9720644E-2,-3.9355806E-3,5.957716E-3,-5.2051554E-3,4.4843904E-3,-6.990493E-3,-1.667808E-2],"split_indices":[2,8,8,2,4,2,4,8,8,2,2,1,8,2,2,6,2,8,0,1,8,2,1,8,8,9,0,8,8,1,6,0,0,0,0,0,0,0,0,0,0,0,0,0,0,0,0,0,0,0,0,0,0,0,0,0,0,0,0,0,0,0,0],"split_type":[0,0,0,0,0,0,0,0,0,0,0,0,0,0,0,0,0,0,0,0,0,0,0,0,0,0,0,0,0,0,0,0,0,0,0,0,0,0,0,0,0,0,0,0,0,0,0,0,0,0,0,0,0,0,0,0,0,0,0,0,0,0,0],"sum_hessian":[2.239E4,1.6095E4,6.295E3,1.3126E4,2.969E3,4.958E3,1.337E3,8.142E3,4.984E3,1.77E3,1.199E3,3.049E3,1.909E3,6.58E2,6.79E2,4.723E3,3.419E3,1.053E3,3.931E3,1.037E3,7.33E2,7.31E2,4.68E2,2.17E2,2.832E3,6.89E2,1.22E3,4.9E2,1.68E2,4.92E2,1.87E2,3.267E3,1.456E3,1.072E3,2.347E3,3.51E2,7.02E2,1.49E2,3.782E3,4.31E2,6.06E2,6.33E2,1E2,2.67E2,4.64E2,3.98E2,7E1,1.54E2,6.3E1,6.43E2,2.189E3,1E2,5.89E2,1.61E2,1.059E3,4.26E2,6.4E1,1.19E2,4.9E1,3.65E2,1.27E2,7.6E1,1.11E2],"tree_param":{"num_deleted":"0","num_feature":"13","num_nodes":"63","size_leaf_vector":"1"}},{"base_weights":[-8.066315E-4,4.1804367E-1,-1.2829003E-1,2.3751445E-1,6.5466624E-1,-4.0116933E-1,4.097394E-2,2.22894E-2,3.5016242E-1,3.7880638E-1,8.2805634E-1,-4.9182162E-1,-2.0636344E-1,-8.6447746E-2,1.8888293E-1,-1.3062778E-1,1.00383125E-1,4.991377E-1,1.2076515E-1,9.122495E-2,4.4822264E-1,7.325986E-1,9.3687624E-1,-6.3691026E-1,-3.869887E-1,-3.7096018E-1,-1.1990906E-1,-4.2810917E-1,-3.9310977E-2,5.3259782E-2,3.3565608E-1,-7.975876E-3,-1.9016908E-3,-3.5084365E-3,5.538504E-3,1.3157677E-2,1.930657E-2,-2.0288513E-3,5.893863E-3,1.633085E-4,9.078648E-3,1.1598317E-2,2.0139085E-2,2.0533085E-2,3.0249774E-2,3.1143626E-2,2.55537E-2,-2.0592848E-2,-1.3027108E-2,-2.2310933E-2,-1.0571281E-2,-1.4018701E-2,-4.824927E-3,-5.3658527E-3,8.9919905E-4,-1.5277342E-2,-1.1511697E-2,-4.289125E-3,3.084328E-3,-1.892216E-4,5.915685E-3,8.448856E-3,1.5536343E-2],"categories":[],"categories_nodes":[],"categories_segments":[],"categories_sizes":[],"default_left":[0,0,0,0,0,0,0,0,0,0,0,0,0,0,0,0,0,0,0,0,0,0,0,0,0,0,0,0,0,0,0,0,0,0,0,0,0,0,0,0,0,0,0,0,0,0,0,0,0,0,0,0,0,0,0,0,0,0,0,0,0,0,0],"id":22,"left_children":[1,3,5,7,9,11,13,15,17,19,21,23,25,27,29,31,33,35,37,39,41,43,45,47,49,51,53,55,57,59,61,-1,-1,-1,-1,-1,-1,-1,-1,-1,-1,-1,-1,-1,-1,-1,-1,-1,-1,-1,-1,-1,-1,-1,-1,-1,-1,-1,-1,-1,-1,-1,-1],"loss_changes":[1.1917567E3,2.2169415E2,7.904159E2,7.177368E1,1.061001E2,1.1518054E2,1.9919821E2,1.22821E1,6.613385E1,1.7322914E1,1.0882446E1,6.671094E1,2.9504288E1,9.137511E1,9.7270035E1,3.0800743E0,1.2556433E1,8.880524E0,1.1075783E1,3.2014613E0,8.405914E0,6.6020203E0,9.7143555E-1,1.7236816E1,3.0865051E1,1.413755E1,1.2193937E1,1.5006332E0,7.3676254E1,2.1851461E1,2.238684E1,0E0,0E0,0E0,0E0,0E0,0E0,0E0,0E0,0E0,0E0,0E0,0E0,0E0,0E0,0E0,0E0,0E0,0E0,0E0,0E0,0E0,0E0,0E0,0E0,0E0,0E0,0E0,0E0,0E0,0E0,0E0,0E0],"parents":[2147483647,0,0,1,1,2,2,3,3,4,4,5,5,6,6,7,7,8,8,9,9,10,10,11,11,12,12,13,13,14,14,15,15,16,16,17,17,18,18,19,19,20,20,21,21,22,22,23,23,24,24,25,25,26,26,27,27,28,28,29,29,30,30],"right_children":[2,4,6,8,10,12,14,16,18,20,22,24,26,28,30,32,34,36,38,40,42,44,46,48,50,52,54,56,58,60,62,-1,-1,-1,-1,-1,-1,-1,-1,-1,-1,-1,-1,-1,-1,-1,-1,-1,-1,-1,-1,-1,-1,-1,-1,-1,-1,-1,-1,-1,-1,-1,-1],"split_conditions":[1E0,1.898E3,5.38E1,6.47E1,5.48071E1,1.496E3,1.242E3,1.242E3,1.897E1,3.62728E1,6.97E1,4.18E1,3.8E1,9.98E2,6.656E1,5.43739E1,4.65E1,8.13482E1,1.12E3,2.956E3,2.956E3,2.835E3,1.3E2,2.041E1,6.3E1,2.143E3,2E3,6.26766E1,7.18E1,1.582E3,1.799E3,-7.975876E-3,-1.9016908E-3,-3.5084365E-3,5.538504E-3,1.3157677E-2,1.930657E-2,-2.0288513E-3,5.893863E-3,1.633085E-4,9.078648E-3,1.1598317E-2,2.0139085E-2,2.0533085E-2,3.0249774E-2,3.1143626E-2,2.55537E-2,-2.0592848E-2,-1.3027108E-2,-2.2310933E-2,-1.0571281E-2,-1.4018701E-2,-4.824927E-3,-5.3658527E-3,8.9919905E-4,-1.5277342E-2,-1.1511697E-2,-4.289125E-3,3.084328E-3,-1.892216E-4,5.915685E-3,8.448856E-3,1.5536343E-2],"split_indices":[4,8,12,12,12,8,8,8,6,12,12,12,12,8,12,12,12,12,8,8,8,8,1,6,1,8,8,12,12,8,8,0,0,0,0,0,0,0,0,0,0,0,0,0,0,0,0,0,0,0,0,0,0,0,0,0,0,0,0,0,0,0,0],"split_type":[0,0,0,0,0,0,0,0,0,0,0,0,0,0,0,0,0,0,0,0,0,0,0,0,0,0,0,0,0,0,0,0,0,0,0,0,0,0,0,0,0,0,0,0,0,0,0,0,0,0,0,0,0,0,0,0,0,0,0,0,0,0,0],"sum_hessian":[2.2309E4,5.203E3,1.7106E4,2.957E3,2.246E3,6.546E3,1.056E4,1.018E3,1.939E3,8.73E2,1.373E3,4.462E3,2.084E3,5.674E3,4.886E3,3.43E2,6.75E2,1.172E3,7.67E2,1.72E2,7.01E2,7.52E2,6.21E2,1.861E3,2.601E3,7.12E2,1.372E3,6.83E2,4.991E3,2.543E3,2.343E3,1.09E2,2.34E2,1.88E2,4.87E2,8.4E2,3.32E2,2.2E2,5.47E2,1.26E2,4.6E1,5.6E2,1.41E2,6.55E2,9.7E1,2.58E2,3.63E2,1.486E3,3.75E2,2.21E2,2.38E3,4.84E2,2.28E2,9.84E2,3.88E2,2.23E2,4.6E2,2.886E3,2.105E3,1.802E3,7.41E2,1.817E3,5.26E2],"tree_param":{"num_deleted":"0","num_feature":"13","num_nodes":"63","size_leaf_vector":"1"}},{"base_weights":[2.841029E-3,1.7842287E-1,-2.8787026E-1,7.9440825E-2,6.238807E-1,2.1521093E-1,-3.741545E-1,-1.16495695E-2,2.4806371E-1,7.75493E-1,3.8656628E-1,-1.4817691E-1,3.2751077E-1,-2.4276859E-1,-5.51737E-1,1.7025943E-1,-7.6468535E-2,4.2778513E-1,1.2835631E-1,8.860815E-1,6.576676E-1,4.4885072E-1,1.01056986E-1,-9.569151E-3,-8.9987904E-2,4.0454948E-1,-1.3463547E-2,-3.1464642E-1,-8.517308E-2,-6.2373567E-1,-3.6498234E-1,1.0928202E-2,3.4279926E-3,-7.5414865E-3,2.2912037E-4,1.8958133E-2,1.0961579E-2,2.197262E-3,8.749187E-3,2.821095E-2,2.2230916E-2,1.8218169E-2,2.9202498E-2,1.2254211E-2,2.1924725E-2,4.4990643E-3,1.3382474E-3,-1.5863142E-3,-4.5715915E-3,1.3949024E-2,2.9173493E-3,-3.5300113E-3,8.751325E-3,-1.7498665E-2,-8.352237E-3,-4.3774587E-3,1.5393328E-3,-1.6295744E-2,-2.202201E-2,-8.558496E-3,-1.811222E-2],"categories":[],"categories_nodes":[],"categories_segments":[],"categories_sizes":[],"default_left":[0,0,0,0,0,0,0,0,0,0,0,0,0,0,0,0,0,0,0,0,0,0,0,0,0,0,0,0,0,0,0,0,0,0,0,0,0,0,0,0,0,0,0,0,0,0,0,0,0,0,0,0,0,0,0,0,0,0,0,0,0],"id":23,"left_children":[1,3,5,7,9,11,13,15,17,19,21,23,25,27,29,31,33,35,37,39,41,43,45,-1,47,49,51,53,55,57,59,-1,-1,-1,-1,-1,-1,-1,-1,-1,-1,-1,-1,-1,-1,-1,-1,-1,-1,-1,-1,-1,-1,-1,-1,-1,-1,-1,-1,-1,-1],"loss_changes":[1.1405715E3,6.1400244E2,3.6563727E2,1.7517902E2,8.960199E1,5.0641014E1,1.6694629E2,8.742575E1,8.578136E1,1.7152649E1,1.750264E1,2.7883039E0,2.48507E1,4.67397E1,3.988568E1,2.0953835E1,8.0421715E1,1.9189636E1,2.1563347E1,2.6574097E0,9.217224E0,7.809128E0,4.7733772E-1,0E0,4.853648E-1,1.408886E1,5.8638663E0,2.6835999E1,1.0839766E1,1.751233E1,1.5522644E1,0E0,0E0,0E0,0E0,0E0,0E0,0E0,0E0,0E0,0E0,0E0,0E0,0E0,0E0,0E0,0E0,0E0,0E0,0E0,0E0,0E0,0E0,0E0,0E0,0E0,0E0,0E0,0E0,0E0,0E0],"parents":[2147483647,0,0,1,1,2,2,3,3,4,4,5,5,6,6,7,7,8,8,9,9,10,10,11,11,12,12,13,13,14,14,15,15,16,16,17,17,18,18,19,19,20,20,21,21,22,22,24,24,25,25,26,26,27,27,28,28,29,29,30,30],"right_children":[2,4,6,8,10,12,14,16,18,20,22,24,26,28,30,32,34,36,38,40,42,44,46,-1,48,50,52,54,56,58,60,-1,-1,-1,-1,-1,-1,-1,-1,-1,-1,-1,-1,-1,-1,-1,-1,-1,-1,-1,-1,-1,-1,-1,-1,-1,-1,-1,-1,-1,-1],"split_conditions":[1.2E1,1.599E3,1E0,1.299E3,1E0,1.595E3,1.5E1,7E0,8E0,9E0,1.1E1,3.98E1,1.6E1,1.497E3,1.496E3,1E0,1.197E3,1.461E3,1.582E3,2.147E3,2.835E3,3E2,2.03E2,-9.569151E-3,1.4E1,3.3E1,2.498E3,1.1E1,1.999E3,1.7E1,1.8E1,1.0928202E-2,3.4279926E-3,-7.5414865E-3,2.2912037E-4,1.8958133E-2,1.0961579E-2,2.197262E-3,8.749187E-3,2.821095E-2,2.2230916E-2,1.8218169E-2,2.9202498E-2,1.2254211E-2,2.1924725E-2,4.4990643E-3,1.3382474E-3,-1.5863142E-3,-4.5715915E-3,1.3949024E-2,2.9173493E-3,-3.5300113E-3,8.751325E-3,-1.7498665E-2,-8.352237E-3,-4.3774587E-3,1.5393328E-3,-1.6295744E-2,-2.202201E-2,-8.558496E-3,-1.811222E-2],"split_indices":[2,8,4,8,4,8,2,2,2,2,2,12,2,8,8,4,8,8,8,8,8,1,9,0,2,0,8,0,8,2,2,0,0,0,0,0,0,0,0,0,0,0,0,0,0,0,0,0,0,0,0,0,0,0,0,0,0,0,0,0,0],"split_type":[0,0,0,0,0,0,0,0,0,0,0,0,0,0,0,0,0,0,0,0,0,0,0,0,0,0,0,0,0,0,0,0,0,0,0,0,0,0,0,0,0,0,0,0,0,0,0,0,0,0,0,0,0,0,0,0,0,0,0,0,0],"sum_hessian":[2.2335E4,1.3926E4,8.409E3,1.1399E4,2.527E3,1.23E3,7.179E3,7.404E3,3.995E3,1.535E3,9.92E2,2.9E2,9.4E2,4.133E3,3.046E3,1.943E3,5.461E3,1.592E3,2.403E3,7.75E2,7.6E2,8.12E2,1.8E2,6.8E1,2.22E2,7.66E2,1.74E2,2.835E3,1.298E3,2.19E3,8.56E2,4.29E2,1.514E3,1.77E3,3.691E3,3.62E2,1.23E3,1.802E3,6.01E2,5.44E2,2.31E2,6.68E2,9.2E1,7.21E2,9.1E1,9.2E1,8.8E1,1.45E2,7.7E1,6.38E2,1.28E2,1.32E2,4.2E1,3.28E2,2.507E3,8.98E2,4E2,1.283E3,9.07E2,6.5E2,2.06E2],"tree_param":{"num_deleted":"0","num_feature":"13","num_nodes":"61","size_leaf_vector":"1"}},{"base_weights":[-7.334901E-4,3.9431155E-1,-1.2083745E-1,2.2705138E-1,6.1896837E-1,-3.7517735E-1,3.943927E-2,8.575915E-2,3.9158294E-1,3.571086E-1,7.820912E-1,-6.023031E-1,-3.0223665E-1,-8.074026E-2,1.8123022E-1,-5.9209775E-2,1.7505455E-1,2.570755E-1,5.325843E-1,-2.3825502E-2,4.076898E-1,6.642047E-1,8.5542464E-1,-7.306812E-1,-5.052341E-1,-4.7554192E-1,-2.3510726E-1,-4.061499E-1,-3.7461445E-2,3.0477453E-2,3.047222E-1,-7.603103E-3,-2.9314062E-4,-3.5672772E-3,7.184351E-3,2.1635229E-2,6.622191E-3,2.0662459E-2,1.3118178E-2,4.7337404E-3,-4.375506E-3,1.0514959E-2,1.8130297E-2,1.8506244E-2,2.8008353E-2,2.7228473E-2,2.1578517E-2,-1.7031891E-2,-2.261407E-2,-2.4240017E-2,-1.3757537E-2,-1.5964972E-2,-4.7255955E-3,-9.422504E-3,-3.376472E-3,-1.4428914E-2,-1.09424E-2,-4.1468553E-3,3.025857E-3,-6.8565723E-3,1.9679558E-3,7.118428E-3,1.3242391E-2],"categories":[],"categories_nodes":[],"categories_segments":[],"categories_sizes":[],"default_left":[0,0,0,0,0,0,0,0,0,0,0,0,0,0,0,0,0,0,0,0,0,0,0,0,0,0,0,0,0,0,0,0,0,0,0,0,0,0,0,0,0,0,0,0,0,0,0,0,0,0,0,0,0,0,0,0,0,0,0,0,0,0,0],"id":24,"left_children":[1,3,5,7,9,11,13,15,17,19,21,23,25,27,29,31,33,35,37,39,41,43,45,47,49,51,53,55,57,59,61,-1,-1,-1,-1,-1,-1,-1,-1,-1,-1,-1,-1,-1,-1,-1,-1,-1,-1,-1,-1,-1,-1,-1,-1,-1,-1,-1,-1,-1,-1,-1,-1],"loss_changes":[1.0633239E3,1.9563263E2,7.006572E2,6.964293E1,9.373053E1,1.09159E2,1.7979793E2,2.1048706E1,2.5601944E1,1.6696213E1,8.985474E0,1.8217224E1,5.8064148E1,8.036798E1,9.0058685E1,5.9602337E0,1.9175337E1,1.1328819E1,8.496384E0,2.4642143E0,7.522232E0,4.095169E0,2.6048584E0,4.2974854E-1,1.1324936E1,2.4827545E1,3.5074844E1,1.1981964E0,7.0417015E1,1.9952799E1,2.3997757E1,0E0,0E0,0E0,0E0,0E0,0E0,0E0,0E0,0E0,0E0,0E0,0E0,0E0,0E0,0E0,0E0,0E0,0E0,0E0,0E0,0E0,0E0,0E0,0E0,0E0,0E0,0E0,0E0,0E0,0E0,0E0,0E0],"parents":[2147483647,0,0,1,1,2,2,3,3,4,4,5,5,6,6,7,7,8,8,9,9,10,10,11,11,12,12,13,13,14,14,15,15,16,16,17,17,18,18,19,19,20,20,21,21,22,22,23,23,24,24,25,25,26,26,27,27,28,28,29,29,30,30],"right_children":[2,4,6,8,10,12,14,16,18,20,22,24,26,28,30,32,34,36,38,40,42,44,46,48,50,52,54,56,58,60,62,-1,-1,-1,-1,-1,-1,-1,-1,-1,-1,-1,-1,-1,-1,-1,-1,-1,-1,-1,-1,-1,-1,-1,-1,-1,-1,-1,-1,-1,-1,-1,-1],"split_conditions":[1E0,1.898E3,5.4E1,7.10371E1,5.48071E1,1.197E3,1.242E3,1.242E3,1.298E3,3.12215E1,6.5516E1,4.07254E1,3.68512E1,9.98E2,6.5E1,5.43739E1,4.6E1,2.16E2,1.461E3,9.7662E4,2.956E3,2.835E3,2.179E3,4.9E1,5.4E1,2.143E3,1.497E3,6.2828E1,7.18E1,7.2E1,7.67799E1,-7.603103E-3,-2.9314062E-4,-3.5672772E-3,7.184351E-3,2.1635229E-2,6.622191E-3,2.0662459E-2,1.3118178E-2,4.7337404E-3,-4.375506E-3,1.0514959E-2,1.8130297E-2,1.8506244E-2,2.8008353E-2,2.7228473E-2,2.1578517E-2,-1.7031891E-2,-2.261407E-2,-2.4240017E-2,-1.3757537E-2,-1.5964972E-2,-4.7255955E-3,-9.422504E-3,-3.376472E-3,-1.4428914E-2,-1.09424E-2,-4.1468553E-3,3.025857E-3,-6.8565723E-3,1.9679558E-3,7.118428E-3,1.3242391E-2],"split_indices":[4,8,12,12,12,8,8,8,8,12,12,12,12,8,12,12,12,8,8,5,8,8,8,9,1,8,8,12,12,1,12,0,0,0,0,0,0,0,0,0,0,0,0,0,0,0,0,0,0,0,0,0,0,0,0,0,0,0,0,0,0,0,0],"split_type":[0,0,0,0,0,0,0,0,0,0,0,0,0,0,0,0,0,0,0,0,0,0,0,0,0,0,0,0,0,0,0,0,0,0,0,0,0,0,0,0,0,0,0,0,0,0,0,0,0,0,0,0,0,0,0,0,0,0,0,0,0,0,0],"sum_hessian":[2.2401E4,5.22E3,1.7181E4,2.998E3,2.222E3,6.639E3,1.0542E4,1.617E3,1.381E3,8.59E2,1.363E3,1.605E3,5.034E3,5.707E3,4.835E3,6.17E2,1E3,7.14E2,6.67E2,1.01E2,7.58E2,5.42E2,8.21E2,6.77E2,9.28E2,1.397E3,3.637E3,6.65E2,5.042E3,2.18E3,2.655E3,1.21E2,4.96E2,1.79E2,8.21E2,4.5E1,6.69E2,2.41E2,4.26E2,4E1,6.1E1,5.98E2,1.6E2,4.75E2,6.7E1,5.73E2,2.48E2,1E2,5.77E2,1.13E2,8.15E2,1.183E3,2.14E2,2.207E3,1.43E3,2.18E2,4.47E2,2.917E3,2.125E3,2.57E2,1.923E3,1.787E3,8.68E2],"tree_param":{"num_deleted":"0","num_feature":"13","num_nodes":"63","size_leaf_vector":"1"}},{"base_weights":[-6.226982E-4,1.3516603E-1,-3.3864495E-1,4.3975897E-2,5.4649085E-1,-4.407916E-1,3.9063253E-2,1.4290811E-1,-1.17258824E-1,6.3243264E-1,3.3910403E-1,-3.406573E-1,-6.006938E-1,1.6676535E-1,-2.0799081E-1,3.681632E-2,2.9244846E-1,-3.1833032E-1,-6.4754024E-2,8.9476436E-1,5.832467E-1,2.9109126E-1,2.1770356E-2,-6.948359E-1,-3.1811976E-1,-7.2759813E-1,-5.294137E-1,1.02629445E-1,5.360322E-1,-2.6658982E-1,8.525435E-3,3.4590617E-3,-4.1117063E-3,6.2210206E-3,1.2514778E-2,-1.3567913E-2,-7.4021234E-3,-8.321835E-3,-8.6863287E-4,2.8828893E-2,1.9970994E-2,1.3589333E-2,2.116394E-2,1.3404064E-2,3.735813E-3,-1.6379328E-2,-2.3868026E-2,-1.369749E-2,-8.288235E-3,-2.8068252E-2,-2.0903751E-2,-9.717334E-3,-1.7136427E-2,1.0473599E-2,5.107611E-4,1.2979365E-2,1.9243263E-2,2.682841E-3,-9.160322E-3],"categories":[],"categories_nodes":[],"categories_segments":[],"categories_sizes":[],"default_left":[0,0,0,0,0,0,0,0,0,0,0,0,0,0,0,0,0,0,0,0,0,0,0,0,0,0,0,0,0,0,0,0,0,0,0,0,0,0,0,0,0,0,0,0,0,0,0,0,0,0,0,0,0,0,0,0,0,0,0],"id":25,"left_children":[1,3,5,7,9,11,13,15,17,19,21,23,25,27,29,31,33,35,37,39,41,43,-1,45,47,49,51,53,55,57,-1,-1,-1,-1,-1,-1,-1,-1,-1,-1,-1,-1,-1,-1,-1,-1,-1,-1,-1,-1,-1,-1,-1,-1,-1,-1,-1,-1,-1],"loss_changes":[1.0205313E3,5.9484375E2,2.4592822E2,2.072753E2,5.022284E1,7.9291565E1,4.3112053E1,1.2769119E2,5.207071E1,2.3570923E1,1.4794487E1,2.3608032E1,1.5487122E1,2.103987E1,1.3818609E1,6.443623E1,3.5017273E1,9.241684E0,2.983868E1,1.5173645E0,2.5834473E1,1.9640541E1,0E0,5.4304504E-1,1.6287842E1,1.0914917E0,9.821167E0,1.628104E1,5.0949097E-2,5.9175587E0,0E0,0E0,0E0,0E0,0E0,0E0,0E0,0E0,0E0,0E0,0E0,0E0,0E0,0E0,0E0,0E0,0E0,0E0,0E0,0E0,0E0,0E0,0E0,0E0,0E0,0E0,0E0,0E0,0E0],"parents":[2147483647,0,0,1,1,2,2,3,3,4,4,5,5,6,6,7,7,8,8,9,9,10,10,11,11,12,12,13,13,14,14,15,15,16,16,17,17,18,18,19,19,20,20,21,21,23,23,24,24,25,25,26,26,27,27,28,28,29,29],"right_children":[2,4,6,8,10,12,14,16,18,20,22,24,26,28,30,32,34,36,38,40,42,44,-1,46,48,50,52,54,56,58,-1,-1,-1,-1,-1,-1,-1,-1,-1,-1,-1,-1,-1,-1,-1,-1,-1,-1,-1,-1,-1,-1,-1,-1,-1,-1,-1,-1,-1],"split_conditions":[1.3E1,1.599E3,1.796E3,1E1,1.1E1,1.6E1,1.6E1,1.242E3,1.197E3,4E0,2.967E3,5E0,1.194E3,2.967E3,2.967E3,2.143E1,7.45E1,9.98E2,7.2E1,2.038E1,2.2E1,2.147E3,2.1770356E-2,4E0,1.197E3,5E0,4.9E1,4E0,2.993E3,2.5E1,8.525435E-3,3.4590617E-3,-4.1117063E-3,6.2210206E-3,1.2514778E-2,-1.3567913E-2,-7.4021234E-3,-8.321835E-3,-8.6863287E-4,2.8828893E-2,1.9970994E-2,1.3589333E-2,2.116394E-2,1.3404064E-2,3.735813E-3,-1.6379328E-2,-2.3868026E-2,-1.369749E-2,-8.288235E-3,-2.8068252E-2,-2.0903751E-2,-9.717334E-3,-1.7136427E-2,1.0473599E-2,5.107611E-4,1.2979365E-2,1.9243263E-2,2.682841E-3,-9.160322E-3],"split_indices":[2,8,8,2,2,2,2,8,8,0,8,0,8,8,8,6,12,8,1,6,0,8,0,3,8,0,9,0,8,1,0,0,0,0,0,0,0,0,0,0,0,0,0,0,0,0,0,0,0,0,0,0,0,0,0,0,0,0,0],"split_type":[0,0,0,0,0,0,0,0,0,0,0,0,0,0,0,0,0,0,0,0,0,0,0,0,0,0,0,0,0,0,0,0,0,0,0,0,0,0,0,0,0,0,0,0,0,0,0,0,0,0,0,0,0,0,0,0,0,0,0],"sum_hessian":[2.2224E4,1.5857E4,6.367E3,1.2984E4,2.873E3,5.011E3,1.356E3,8.047E3,4.937E3,2.024E3,8.49E2,3.091E3,1.92E3,8.95E2,4.61E2,4.711E3,3.336E3,1.017E3,3.92E3,3.06E2,1.718E3,7.63E2,8.6E1,1.76E2,2.915E3,6.74E2,1.246E3,7.68E2,1.27E2,4.14E2,4.7E1,3.247E3,1.464E3,1.991E3,1.345E3,3.45E2,6.72E2,5.6E2,3.36E3,2.25E2,8.1E1,8.43E2,8.75E2,3.9E2,3.73E2,8.4E1,9.2E1,6.65E2,2.25E3,6.8E1,6.06E2,2.18E2,1.028E3,1.94E2,5.74E2,7.7E1,5E1,4E1,3.74E2],"tree_param":{"num_deleted":"0","num_feature":"13","num_nodes":"59","size_leaf_vector":"1"}},{"base_weights":[-1.5539202E-4,1.2977852E-1,-3.294069E-1,3.8723726E-2,5.329372E-1,1.360055E-1,-4.049726E-1,2.0847604E-1,-4.9216334E-2,6.824953E-1,3.1139266E-1,-1.0563603E-1,2.621206E-1,-3.0801594E-1,-5.565855E-1,1.0512816E-1,3.778773E-1,-2.7014917E-1,8.539709E-3,8.144799E-1,5.7644373E-1,4.291126E-1,1.19075805E-1,-2.0289381E-1,1.0698589E-1,1.932342E-1,4.6731207E-1,-3.721071E-1,-1.4243937E-1,-7.058143E-1,-4.851296E-1,8.247479E-3,1.758039E-3,1.5048025E-2,9.165295E-3,-1.2574527E-2,-6.163864E-3,2.3882543E-3,-3.123247E-3,2.6005369E-2,2.001325E-2,1.603569E-2,2.8880825E-2,1.0141041E-2,1.6220428E-2,1.8816481E-3,1.1946103E-2,-1.0986906E-2,-4.007073E-3,1.3031786E-2,-4.8571397E-3,7.479806E-3,-2.936032E-3,1.666171E-2,6.9059273E-3,-1.816177E-2,-1.0021856E-2,-6.2062936E-3,-1.5697874E-4,-1.5837582E-2,-2.1963814E-2,-1.5302013E-2,-6.107447E-3],"categories":[],"categories_nodes":[],"categories_segments":[],"categories_sizes":[],"default_left":[0,0,0,0,0,0,0,0,0,0,0,0,0,0,0,0,0,0,0,0,0,0,0,0,0,0,0,0,0,0,0,0,0,0,0,0,0,0,0,0,0,0,0,0,0,0,0,0,0,0,0,0,0,0,0,0,0,0,0,0,0,0,0],"id":26,"left_children":[1,3,5,7,9,11,13,15,17,19,21,23,25,27,29,31,33,35,37,39,41,43,45,47,49,51,53,55,57,59,61,-1,-1,-1,-1,-1,-1,-1,-1,-1,-1,-1,-1,-1,-1,-1,-1,-1,-1,-1,-1,-1,-1,-1,-1,-1,-1,-1,-1,-1,-1,-1,-1],"loss_changes":[9.473409E2,5.8277075E2,2.2064575E2,1.9348871E2,9.585364E1,2.6925663E1,7.840454E1,7.723596E1,1.08983696E2,2.2035583E1,2.6640282E1,6.4156704E0,7.732605E0,3.4754547E1,2.0648865E1,2.1675201E1,1.4222046E1,1.6629517E1,5.42804E1,3.004547E0,1.3343689E1,6.554779E0,7.079467E0,2.14462E0,9.06728E0,7.339285E0,2.3263664E0,2.0076721E1,8.208065E0,1.1943054E0,9.549072E0,0E0,